digraph Tree {
rankdir=LR;
node [shape=box, style="filled, rounded", color="black", fontname="helvetica"] ;
edge [fontname="helvetica"] ;
0 [label=<material_tonnage &le; -0.066<br/>squared_error = 396635360.613<br/>samples = 100.0%<br/>value = 142473.457>, fillcolor="#f2c09c"] ;
1 [label=<distance_up &le; -0.46<br/>squared_error = 231736364.952<br/>samples = 46.6%<br/>value = 130162.479>, fillcolor="#f6d3ba"] ;
0 -> 1 [labeldistance=2.5, labelangle=45, headlabel="True"] ;
2 [label=<material_tonnage &le; -0.942<br/>squared_error = 248480157.486<br/>samples = 12.6%<br/>value = 143139.127>, fillcolor="#f2bf9a"] ;
1 -> 2 ;
3 [label=<material_tonnage &le; -3.192<br/>squared_error = 185782527.039<br/>samples = 4.9%<br/>value = 130658.072>, fillcolor="#f6d2b9"] ;
2 -> 3 ;
4 [label=<squared_error = 35567471.821<br/>samples = 0.5%<br/>value = 102033.013>, fillcolor="#ffffff"] ;
3 -> 4 ;
5 [label=<material_tonnage &le; -1.68<br/>squared_error = 108967160.85<br/>samples = 4.5%<br/>value = 133578.997>, fillcolor="#f5ceb2"] ;
3 -> 5 ;
6 [label=<efectivo &le; -5.359<br/>squared_error = 157937489.002<br/>samples = 1.2%<br/>value = 124140.404>, fillcolor="#f8ddc9"] ;
5 -> 6 ;
7 [label=<squared_error = 0.0<br/>samples = 0.1%<br/>value = 161608.605>, fillcolor="#eca26d"] ;
6 -> 7 ;
8 [label=<squared_error = 44361037.173<br/>samples = 1.1%<br/>value = 121018.054>, fillcolor="#f9e1d0"] ;
6 -> 8 ;
9 [label=<squared_error = 47496056.39<br/>samples = 3.3%<br/>value = 136987.377>, fillcolor="#f4c9a9"] ;
5 -> 9 ;
10 [label=<electrica &le; 2.309<br/>squared_error = 124266475.624<br/>samples = 7.7%<br/>value = 151162.662>, fillcolor="#efb287"] ;
2 -> 10 ;
11 [label=<squared_error = 104680145.292<br/>samples = 7.5%<br/>value = 151891.651>, fillcolor="#efb185"] ;
10 -> 11 ;
12 [label=<squared_error = 12193309.988<br/>samples = 0.2%<br/>value = 121274.131>, fillcolor="#f9e1d0"] ;
10 -> 12 ;
13 [label=<material_tonnage &le; -1.051<br/>squared_error = 140190847.463<br/>samples = 34.0%<br/>value = 125361.467>, fillcolor="#f7dbc6"] ;
1 -> 13 ;
14 [label=<material_tonnage &le; -1.853<br/>squared_error = 106601798.228<br/>samples = 9.3%<br/>value = 116883.11>, fillcolor="#fae8db"] ;
13 -> 14 ;
15 [label=<squared_error = 73592317.336<br/>samples = 2.2%<br/>value = 108990.693>, fillcolor="#fdf4ee"] ;
14 -> 15 ;
16 [label=<waiting &le; -1.263<br/>squared_error = 91695030.929<br/>samples = 7.1%<br/>value = 119311.546>, fillcolor="#f9e4d5"] ;
14 -> 16 ;
17 [label=<squared_error = 32127577.333<br/>samples = 1.7%<br/>value = 112307.117>, fillcolor="#fcefe6"] ;
16 -> 17 ;
18 [label=<squared_error = 89990118.202<br/>samples = 5.4%<br/>value = 121567.209>, fillcolor="#f9e1cf"] ;
16 -> 18 ;
19 [label=<year_2024 &le; 0.5<br/>squared_error = 115594582.711<br/>samples = 24.7%<br/>value = 128552.582>, fillcolor="#f6d6be"] ;
13 -> 19 ;
20 [label=<mec_excl &le; -0.018<br/>squared_error = 96018025.375<br/>samples = 21.3%<br/>value = 130379.189>, fillcolor="#f6d3ba"] ;
19 -> 20 ;
21 [label=<squared_error = 66601052.901<br/>samples = 5.0%<br/>value = 138406.504>, fillcolor="#f3c6a6"] ;
20 -> 21 ;
22 [label=<material_tonnage &le; -0.594<br/>squared_error = 79044845.741<br/>samples = 16.2%<br/>value = 127898.838>, fillcolor="#f7d7c0"] ;
20 -> 22 ;
23 [label=<squared_error = 66291685.069<br/>samples = 7.5%<br/>value = 124816.491>, fillcolor="#f8dbc7"] ;
22 -> 23 ;
24 [label=<squared_error = 74891010.27<br/>samples = 8.8%<br/>value = 130531.677>, fillcolor="#f6d3b9"] ;
22 -> 24 ;
25 [label=<squared_error = 89732270.335<br/>samples = 3.5%<br/>value = 117352.602>, fillcolor="#fae7d9"] ;
19 -> 25 ;
26 [label=<Komatsu AHS &le; -0.625<br/>squared_error = 292644977.352<br/>samples = 53.4%<br/>value = 153227.149>, fillcolor="#efaf82"] ;
0 -> 26 [labeldistance=2.5, labelangle=-45, headlabel="False"] ;
27 [label=<material_tonnage &le; 0.819<br/>squared_error = 95353529.586<br/>samples = 17.5%<br/>value = 137725.174>, fillcolor="#f4c7a8"] ;
26 -> 27 ;
28 [label=<year_2024 &le; 0.5<br/>squared_error = 70938676.01<br/>samples = 12.8%<br/>value = 135184.433>, fillcolor="#f4cbae"] ;
27 -> 28 ;
29 [label=<squared_error = 62776622.593<br/>samples = 10.0%<br/>value = 136991.284>, fillcolor="#f4c9a9"] ;
28 -> 29 ;
30 [label=<squared_error = 45003350.814<br/>samples = 2.7%<br/>value = 128559.311>, fillcolor="#f6d6be"] ;
28 -> 30 ;
31 [label=<mant_excl &le; 1.453<br/>squared_error = 96914125.686<br/>samples = 4.7%<br/>value = 144565.632>, fillcolor="#f1bd97"] ;
27 -> 31 ;
32 [label=<squared_error = 70979158.773<br/>samples = 4.4%<br/>value = 142968.446>, fillcolor="#f2bf9b"] ;
31 -> 32 ;
33 [label=<squared_error = 10177229.046<br/>samples = 0.4%<br/>value = 163731.865>, fillcolor="#eb9f68"] ;
31 -> 33 ;
34 [label=<Kom.930EN &le; 2.249<br/>squared_error = 214270026.464<br/>samples = 35.9%<br/>value = 160800.633>, fillcolor="#eca36f"] ;
26 -> 34 ;
35 [label=<material_tonnage &le; 1.052<br/>squared_error = 142547695.183<br/>samples = 25.6%<br/>value = 155897.348>, fillcolor="#eeab7b"] ;
34 -> 35 ;
36 [label=<year_2023 &le; 0.5<br/>squared_error = 100830937.969<br/>samples = 18.8%<br/>value = 152202.78>, fillcolor="#efb184"] ;
35 -> 36 ;
37 [label=<squared_error = 78712191.749<br/>samples = 13.8%<br/>value = 154421.443>, fillcolor="#eead7f"] ;
36 -> 37 ;
38 [label=<squared_error = 110939370.444<br/>samples = 5.0%<br/>value = 146111.542>, fillcolor="#f1ba93"] ;
36 -> 38 ;
39 [label=<waiting &le; -0.305<br/>squared_error = 116661392.471<br/>samples = 6.8%<br/>value = 166045.096>, fillcolor="#ea9b62"] ;
35 -> 39 ;
40 [label=<squared_error = 52453120.279<br/>samples = 1.2%<br/>value = 154870.511>, fillcolor="#eead7e"] ;
39 -> 40 ;
41 [label=<squared_error = 98451792.86<br/>samples = 5.7%<br/>value = 168388.154>, fillcolor="#ea985c"] ;
39 -> 41 ;
42 [label=<material_tonnage &le; 0.965<br/>squared_error = 182557106.266<br/>samples = 10.2%<br/>value = 173102.623>, fillcolor="#e89051"] ;
34 -> 42 ;
43 [label=<expected_time &le; -1.812<br/>squared_error = 147272462.765<br/>samples = 6.4%<br/>value = 167240.937>, fillcolor="#ea995f"] ;
42 -> 43 ;
44 [label=<squared_error = 115323306.536<br/>samples = 1.3%<br/>value = 154093.313>, fillcolor="#eeae7f"] ;
43 -> 44 ;
45 [label=<mecanica &le; -1.169<br/>squared_error = 101241004.139<br/>samples = 5.1%<br/>value = 170527.842>, fillcolor="#e99457"] ;
43 -> 45 ;
46 [label=<squared_error = 44721609.109<br/>samples = 0.9%<br/>value = 180711.279>, fillcolor="#e6843e"] ;
45 -> 46 ;
47 [label=<squared_error = 86082962.639<br/>samples = 4.2%<br/>value = 168314.052>, fillcolor="#ea985d"] ;
45 -> 47 ;
48 [label=<squared_error = 88656533.444<br/>samples = 3.8%<br/>value = 182872.101>, fillcolor="#e58139"] ;
42 -> 48 ;
}
