digraph Tree {
node [shape=box, style="filled, rounded", color="black", fontname="helvetica"] ;
edge [fontname="helvetica"] ;
0 [label=<distance_up_level &le; 0.169<br/>squared_error = 396635360.613<br/>samples = 1096<br/>value = 142473.457>, fillcolor="#f3c3a1"] ;
1 [label=<Komatsu AHS &le; 0.356<br/>squared_error = 213931049.566<br/>samples = 668<br/>value = 132433.401>, fillcolor="#f5d0b5"] ;
0 -> 1 [labeldistance=2.5, labelangle=45, headlabel="True"] ;
2 [label=<efectivo &le; 0.554<br/>squared_error = 164707186.148<br/>samples = 444<br/>value = 128984.305>, fillcolor="#f6d4bb"] ;
1 -> 2 ;
3 [label=<queued &le; 0.217<br/>squared_error = 160666406.628<br/>samples = 250<br/>value = 125416.787>, fillcolor="#f7d8c2"] ;
2 -> 3 ;
4 [label=<distance_up &le; -0.065<br/>squared_error = 160168464.994<br/>samples = 158<br/>value = 122403.719>, fillcolor="#f8dcc8"] ;
3 -> 4 ;
5 [label=<mantencion &le; -0.322<br/>squared_error = 109189242.944<br/>samples = 12<br/>value = 107478.229>, fillcolor="#fceee5"] ;
4 -> 5 ;
6 [label=<mantencion &le; -1.169<br/>squared_error = 12729802.841<br/>samples = 6<br/>value = 99245.667>, fillcolor="#fef8f5"] ;
5 -> 6 ;
7 [label=<squared_error = 0.0<br/>samples = 1<br/>value = 105929.204>, fillcolor="#fcf0e8"] ;
6 -> 7 ;
8 [label=<lift_up &le; -0.647<br/>squared_error = 4555041.831<br/>samples = 5<br/>value = 97908.959>, fillcolor="#fefaf7"] ;
6 -> 8 ;
9 [label=<squared_error = 0.0<br/>samples = 1<br/>value = 93935.863>, fillcolor="#ffffff"] ;
8 -> 9 ;
10 [label=<CAT 797-F &le; 0.356<br/>squared_error = 760836.256<br/>samples = 4<br/>value = 98902.233>, fillcolor="#fef9f5"] ;
8 -> 10 ;
11 [label=<distance_up &le; -0.198<br/>squared_error = 38432.06<br/>samples = 2<br/>value = 99762.835>, fillcolor="#fef8f4"] ;
10 -> 11 ;
12 [label=<squared_error = 0.0<br/>samples = 1<br/>value = 99566.794>, fillcolor="#fef8f4"] ;
11 -> 12 ;
13 [label=<squared_error = 0.0<br/>samples = 1<br/>value = 99958.876>, fillcolor="#fdf8f3"] ;
11 -> 13 ;
14 [label=<squared_error = 1968.86<br/>samples = 2<br/>value = 98041.631>, fillcolor="#fefaf7"] ;
10 -> 14 ;
15 [label=<shift_B &le; 0.5<br/>squared_error = 70098520.043<br/>samples = 6<br/>value = 115710.791>, fillcolor="#f9e4d5"] ;
5 -> 15 ;
16 [label=<waiting &le; -0.363<br/>squared_error = 8863803.741<br/>samples = 3<br/>value = 107797.931>, fillcolor="#fbeee4"] ;
15 -> 16 ;
17 [label=<squared_error = 0.0<br/>samples = 1<br/>value = 103625.089>, fillcolor="#fdf3ec"] ;
16 -> 17 ;
18 [label=<mec_excl &le; 1.066<br/>squared_error = 236245.936<br/>samples = 2<br/>value = 109884.352>, fillcolor="#fbebe0"] ;
16 -> 18 ;
19 [label=<squared_error = 0.0<br/>samples = 1<br/>value = 109398.301>, fillcolor="#fbece1"] ;
18 -> 19 ;
20 [label=<squared_error = -0.0<br/>samples = 1<br/>value = 110370.404>, fillcolor="#fbebdf"] ;
18 -> 20 ;
21 [label=<CAT 797-F &le; 0.356<br/>squared_error = 6106534.543<br/>samples = 3<br/>value = 123623.651>, fillcolor="#f7dbc6"] ;
15 -> 21 ;
22 [label=<squared_error = 5483.26<br/>samples = 2<br/>value = 121876.814>, fillcolor="#f8ddc9"] ;
21 -> 22 ;
23 [label=<squared_error = 0.0<br/>samples = 1<br/>value = 127117.325>, fillcolor="#f7d6bf"] ;
21 -> 23 ;
24 [label=<waiting &le; -1.045<br/>squared_error = 144543731.896<br/>samples = 146<br/>value = 123630.472>, fillcolor="#f7dbc6"] ;
4 -> 24 ;
25 [label=<queued &le; -1.185<br/>squared_error = 174619107.405<br/>samples = 32<br/>value = 114799.707>, fillcolor="#fae5d7"] ;
24 -> 25 ;
26 [label=<travel_time &le; 0.417<br/>squared_error = 22408346.414<br/>samples = 8<br/>value = 104865.482>, fillcolor="#fcf2ea"] ;
25 -> 26 ;
27 [label=<mant_excl &le; -0.212<br/>squared_error = 7874716.979<br/>samples = 4<br/>value = 108809.982>, fillcolor="#fbede2"] ;
26 -> 27 ;
28 [label=<mantencion &le; 1.495<br/>squared_error = 1945295.434<br/>samples = 3<br/>value = 107347.593>, fillcolor="#fcefe5"] ;
27 -> 28 ;
29 [label=<lift_up &le; -0.26<br/>squared_error = 45948.7<br/>samples = 2<br/>value = 106369.159>, fillcolor="#fcf0e7"] ;
28 -> 29 ;
30 [label=<squared_error = 0.0<br/>samples = 1<br/>value = 106154.803>, fillcolor="#fcf0e7"] ;
29 -> 30 ;
31 [label=<squared_error = 0.0<br/>samples = 1<br/>value = 106583.516>, fillcolor="#fcefe7"] ;
29 -> 31 ;
32 [label=<squared_error = 0.0<br/>samples = 1<br/>value = 109304.459>, fillcolor="#fbece1"] ;
28 -> 32 ;
33 [label=<squared_error = -0.0<br/>samples = 1<br/>value = 113197.149>, fillcolor="#fae7da"] ;
27 -> 33 ;
34 [label=<lift_down_level &le; 0.999<br/>squared_error = 5823819.695<br/>samples = 4<br/>value = 100920.982>, fillcolor="#fdf6f2"] ;
26 -> 34 ;
35 [label=<mantencion &le; -1.203<br/>squared_error = 739598.885<br/>samples = 3<br/>value = 102246.265>, fillcolor="#fdf5ef"] ;
34 -> 35 ;
36 [label=<squared_error = 0.0<br/>samples = 1<br/>value = 103344.433>, fillcolor="#fdf3ed"] ;
35 -> 36 ;
37 [label=<r_prog &le; 0.309<br/>squared_error = 204917.86<br/>samples = 2<br/>value = 101697.18>, fillcolor="#fdf5f0"] ;
35 -> 37 ;
38 [label=<squared_error = 0.0<br/>samples = 1<br/>value = 101244.502>, fillcolor="#fdf6f1"] ;
37 -> 38 ;
39 [label=<squared_error = 0.0<br/>samples = 1<br/>value = 102149.859>, fillcolor="#fdf5ef"] ;
37 -> 39 ;
40 [label=<squared_error = -0.0<br/>samples = 1<br/>value = 96945.135>, fillcolor="#fefbf9"] ;
34 -> 40 ;
41 [label=<distance_up &le; 0.627<br/>squared_error = 181494330.274<br/>samples = 24<br/>value = 118111.115>, fillcolor="#f9e1d0"] ;
25 -> 41 ;
42 [label=<crew_E2 &le; 0.5<br/>squared_error = 111324460.636<br/>samples = 12<br/>value = 111444.366>, fillcolor="#fbeadd"] ;
41 -> 42 ;
43 [label=<mant_excl &le; 0.277<br/>squared_error = 55680552.817<br/>samples = 9<br/>value = 107067.835>, fillcolor="#fcefe6"] ;
42 -> 43 ;
44 [label=<waiting &le; -1.263<br/>squared_error = 10526014.074<br/>samples = 7<br/>value = 103555.556>, fillcolor="#fdf3ec"] ;
43 -> 44 ;
45 [label=<distance_down_level &le; -0.568<br/>squared_error = 2409371.148<br/>samples = 3<br/>value = 106831.337>, fillcolor="#fcefe6"] ;
44 -> 45 ;
46 [label=<squared_error = 0.0<br/>samples = 1<br/>value = 104639.897>, fillcolor="#fcf2ea"] ;
45 -> 46 ;
47 [label=<squared_error = 12251.035<br/>samples = 2<br/>value = 107927.056>, fillcolor="#fbeee4"] ;
45 -> 47 ;
48 [label=<shift_B &le; 0.5<br/>squared_error = 2529399.993<br/>samples = 4<br/>value = 101098.72>, fillcolor="#fdf6f1"] ;
44 -> 48 ;
49 [label=<day_22 &le; 0.5<br/>squared_error = 440376.422<br/>samples = 3<br/>value = 101954.897>, fillcolor="#fdf5f0"] ;
48 -> 49 ;
50 [label=<mantencion &le; 0.893<br/>squared_error = 42493.66<br/>samples = 2<br/>value = 101500.999>, fillcolor="#fdf6f0"] ;
49 -> 50 ;
51 [label=<squared_error = 0.0<br/>samples = 1<br/>value = 101707.139>, fillcolor="#fdf5f0"] ;
50 -> 51 ;
52 [label=<squared_error = 0.0<br/>samples = 1<br/>value = 101294.859>, fillcolor="#fdf6f1"] ;
50 -> 52 ;
53 [label=<squared_error = 0.0<br/>samples = 1<br/>value = 102862.694>, fillcolor="#fdf4ee"] ;
49 -> 53 ;
54 [label=<squared_error = -0.0<br/>samples = 1<br/>value = 98530.189>, fillcolor="#fef9f6"] ;
48 -> 54 ;
55 [label=<queued &le; -0.194<br/>squared_error = 19427836.134<br/>samples = 2<br/>value = 119360.81>, fillcolor="#f9e0ce"] ;
43 -> 55 ;
56 [label=<squared_error = 0.0<br/>samples = 1<br/>value = 114953.108>, fillcolor="#fae5d6"] ;
55 -> 56 ;
57 [label=<squared_error = -0.0<br/>samples = 1<br/>value = 123768.512>, fillcolor="#f7dac5"] ;
55 -> 57 ;
58 [label=<mantencion &le; 0.572<br/>squared_error = 48407827.299<br/>samples = 3<br/>value = 124573.961>, fillcolor="#f7d9c4"] ;
42 -> 58 ;
59 [label=<KOM-CHQ &le; 0.581<br/>squared_error = 10592828.114<br/>samples = 2<br/>value = 120027.207>, fillcolor="#f8dfcd"] ;
58 -> 59 ;
60 [label=<squared_error = 0.0<br/>samples = 1<br/>value = 116772.545>, fillcolor="#f9e3d3"] ;
59 -> 60 ;
61 [label=<squared_error = 0.0<br/>samples = 1<br/>value = 123281.87>, fillcolor="#f8dbc6"] ;
59 -> 61 ;
62 [label=<squared_error = 0.0<br/>samples = 1<br/>value = 133667.469>, fillcolor="#f5ceb2"] ;
58 -> 62 ;
63 [label=<expected_time &le; 0.64<br/>squared_error = 162773125.929<br/>samples = 12<br/>value = 124777.863>, fillcolor="#f7d9c4"] ;
41 -> 63 ;
64 [label=<efectivo &le; 0.401<br/>squared_error = 86001102.559<br/>samples = 5<br/>value = 137124.902>, fillcolor="#f4caac"] ;
63 -> 64 ;
65 [label=<mant_excl &le; -0.619<br/>squared_error = 27211007.765<br/>samples = 4<br/>value = 133117.65>, fillcolor="#f5cfb3"] ;
64 -> 65 ;
66 [label=<distance_up &le; 0.913<br/>squared_error = 6637014.619<br/>samples = 2<br/>value = 137978.744>, fillcolor="#f4c9aa"] ;
65 -> 66 ;
67 [label=<squared_error = 0.0<br/>samples = 1<br/>value = 140554.984>, fillcolor="#f3c6a5"] ;
66 -> 67 ;
68 [label=<squared_error = 0.0<br/>samples = 1<br/>value = 135402.503>, fillcolor="#f5ccaf"] ;
66 -> 68 ;
69 [label=<lift_up &le; -0.17<br/>squared_error = 524535.226<br/>samples = 2<br/>value = 128256.556>, fillcolor="#f6d5bd"] ;
65 -> 69 ;
70 [label=<squared_error = 0.0<br/>samples = 1<br/>value = 127532.308>, fillcolor="#f6d6be"] ;
69 -> 70 ;
71 [label=<squared_error = 0.0<br/>samples = 1<br/>value = 128980.804>, fillcolor="#f6d4bb"] ;
69 -> 71 ;
72 [label=<squared_error = 0.0<br/>samples = 1<br/>value = 153153.913>, fillcolor="#f0b68d"] ;
64 -> 72 ;
73 [label=<mantencion &le; 0.071<br/>squared_error = 30937585.455<br/>samples = 7<br/>value = 115958.55>, fillcolor="#f9e4d5"] ;
63 -> 73 ;
74 [label=<waiting &le; -1.299<br/>squared_error = 21453563.786<br/>samples = 3<br/>value = 121193.056>, fillcolor="#f8deca"] ;
73 -> 74 ;
75 [label=<month_10 &le; 0.5<br/>squared_error = 7648427.207<br/>samples = 2<br/>value = 118333.457>, fillcolor="#f9e1d0"] ;
74 -> 75 ;
76 [label=<squared_error = 0.0<br/>samples = 1<br/>value = 121099.036>, fillcolor="#f8decb"] ;
75 -> 76 ;
77 [label=<squared_error = 0.0<br/>samples = 1<br/>value = 115567.878>, fillcolor="#fae4d5"] ;
75 -> 77 ;
78 [label=<squared_error = -0.0<br/>samples = 1<br/>value = 126912.254>, fillcolor="#f7d7bf"] ;
74 -> 78 ;
79 [label=<r_prog &le; 0.572<br/>squared_error = 2088030.186<br/>samples = 4<br/>value = 112032.67>, fillcolor="#fae9dc"] ;
73 -> 79 ;
80 [label=<mantencion &le; 0.927<br/>squared_error = 184923.68<br/>samples = 2<br/>value = 110740.222>, fillcolor="#fbeadf"] ;
79 -> 80 ;
81 [label=<squared_error = 0.0<br/>samples = 1<br/>value = 110310.195>, fillcolor="#fbebdf"] ;
80 -> 81 ;
82 [label=<squared_error = 0.0<br/>samples = 1<br/>value = 111170.25>, fillcolor="#fbeade"] ;
80 -> 82 ;
83 [label=<lift_down_level &le; 1.238<br/>squared_error = 650293.941<br/>samples = 2<br/>value = 113325.118>, fillcolor="#fae7da"] ;
79 -> 83 ;
84 [label=<squared_error = 0.0<br/>samples = 1<br/>value = 112518.71>, fillcolor="#fae8db"] ;
83 -> 84 ;
85 [label=<squared_error = -0.0<br/>samples = 1<br/>value = 114131.526>, fillcolor="#fae6d8"] ;
83 -> 85 ;
86 [label=<travel_time &le; 0.572<br/>squared_error = 108067216.739<br/>samples = 114<br/>value = 126109.283>, fillcolor="#f7d8c1"] ;
24 -> 86 ;
87 [label=<crew_E2 &le; 0.5<br/>squared_error = 93997502.036<br/>samples = 67<br/>value = 129518.917>, fillcolor="#f6d3ba"] ;
86 -> 87 ;
88 [label=<day_5 &le; 0.5<br/>squared_error = 61508085.607<br/>samples = 36<br/>value = 125077.001>, fillcolor="#f7d9c3"] ;
87 -> 88 ;
89 [label=<r_noprg &le; 0.167<br/>squared_error = 41509037.326<br/>samples = 35<br/>value = 125854.397>, fillcolor="#f7d8c1"] ;
88 -> 89 ;
90 [label=<mec_excl &le; 2.095<br/>squared_error = 33826476.262<br/>samples = 26<br/>value = 124271.676>, fillcolor="#f7dac5"] ;
89 -> 90 ;
91 [label=<mecanica &le; 1.67<br/>squared_error = 26965721.267<br/>samples = 25<br/>value = 124833.74>, fillcolor="#f7d9c3"] ;
90 -> 91 ;
92 [label=<day_3 &le; 0.5<br/>squared_error = 20144511.801<br/>samples = 23<br/>value = 125689.837>, fillcolor="#f7d8c2"] ;
91 -> 92 ;
93 [label=<r_noprg &le; -0.192<br/>squared_error = 15711579.801<br/>samples = 21<br/>value = 126379.226>, fillcolor="#f7d7c0"] ;
92 -> 93 ;
94 [label=<demora &le; -1.118<br/>squared_error = 13845039.503<br/>samples = 14<br/>value = 127933.493>, fillcolor="#f6d5bd"] ;
93 -> 94 ;
95 [label=<mantencion &le; 0.926<br/>squared_error = 5698058.511<br/>samples = 4<br/>value = 123764.338>, fillcolor="#f7dac5"] ;
94 -> 95 ;
96 [label=<waiting &le; -0.449<br/>squared_error = 604514.049<br/>samples = 3<br/>value = 122442.134>, fillcolor="#f8dcc8"] ;
95 -> 96 ;
97 [label=<squared_error = 0.0<br/>samples = 1<br/>value = 121353.73>, fillcolor="#f8ddca"] ;
96 -> 97 ;
98 [label=<squared_error = 18304.046<br/>samples = 2<br/>value = 122986.335>, fillcolor="#f8dbc7"] ;
96 -> 98 ;
99 [label=<squared_error = 0.0<br/>samples = 1<br/>value = 127730.951>, fillcolor="#f6d6be"] ;
95 -> 99 ;
100 [label=<travel_time &le; -0.157<br/>squared_error = 7369993.836<br/>samples = 10<br/>value = 129601.155>, fillcolor="#f6d3ba"] ;
94 -> 100 ;
101 [label=<month_8 &le; 0.5<br/>squared_error = 3214347.4<br/>samples = 3<br/>value = 132644.444>, fillcolor="#f5d0b4"] ;
100 -> 101 ;
102 [label=<mant_excl &le; 0.607<br/>squared_error = 118899.467<br/>samples = 2<br/>value = 133896.459>, fillcolor="#f5ceb2"] ;
101 -> 102 ;
103 [label=<squared_error = 0.0<br/>samples = 1<br/>value = 133551.641>, fillcolor="#f5ceb3"] ;
102 -> 103 ;
104 [label=<squared_error = 0.0<br/>samples = 1<br/>value = 134241.277>, fillcolor="#f5ceb1"] ;
102 -> 104 ;
105 [label=<squared_error = 0.0<br/>samples = 1<br/>value = 130140.415>, fillcolor="#f6d3b9"] ;
101 -> 105 ;
106 [label=<Kom.930E-4 &le; -0.783<br/>squared_error = 3480611.619<br/>samples = 7<br/>value = 128296.888>, fillcolor="#f6d5bd"] ;
100 -> 106 ;
107 [label=<efectivo &le; 0.327<br/>squared_error = 103963.607<br/>samples = 2<br/>value = 125872.567>, fillcolor="#f7d8c1"] ;
106 -> 107 ;
108 [label=<squared_error = 0.0<br/>samples = 1<br/>value = 126195.001>, fillcolor="#f7d7c1"] ;
107 -> 108 ;
109 [label=<squared_error = 0.0<br/>samples = 1<br/>value = 125550.133>, fillcolor="#f7d8c2"] ;
107 -> 109 ;
110 [label=<lift_up &le; -0.287<br/>squared_error = 1539964.559<br/>samples = 5<br/>value = 129266.617>, fillcolor="#f6d4bb"] ;
106 -> 110 ;
111 [label=<efectivo &le; -0.053<br/>squared_error = 195514.767<br/>samples = 2<br/>value = 130661.648>, fillcolor="#f6d2b8"] ;
110 -> 111 ;
112 [label=<squared_error = 0.0<br/>samples = 1<br/>value = 130219.478>, fillcolor="#f6d2b9"] ;
111 -> 112 ;
113 [label=<squared_error = -0.0<br/>samples = 1<br/>value = 131103.819>, fillcolor="#f6d1b7"] ;
111 -> 113 ;
114 [label=<travel_time &le; 0.399<br/>squared_error = 273915.698<br/>samples = 3<br/>value = 128336.595>, fillcolor="#f6d5bd"] ;
110 -> 114 ;
115 [label=<squared_error = 517.012<br/>samples = 2<br/>value = 127966.75>, fillcolor="#f6d5bd"] ;
114 -> 115 ;
116 [label=<squared_error = -0.0<br/>samples = 1<br/>value = 129076.286>, fillcolor="#f6d4bb"] ;
114 -> 116 ;
117 [label=<mantencion &le; 1.291<br/>squared_error = 4950184.388<br/>samples = 7<br/>value = 123270.692>, fillcolor="#f8dbc6"] ;
93 -> 117 ;
118 [label=<travel_time &le; -0.27<br/>squared_error = 2544115.113<br/>samples = 4<br/>value = 121699.893>, fillcolor="#f8ddc9"] ;
117 -> 118 ;
119 [label=<squared_error = 0.0<br/>samples = 1<br/>value = 118958.145>, fillcolor="#f9e0cf"] ;
118 -> 119 ;
120 [label=<crew_E4 &le; 0.5<br/>squared_error = 51183.118<br/>samples = 3<br/>value = 122613.809>, fillcolor="#f8dcc8"] ;
118 -> 120 ;
121 [label=<squared_error = 18568.441<br/>samples = 2<br/>value = 122474.518>, fillcolor="#f8dcc8"] ;
120 -> 121 ;
122 [label=<squared_error = -0.0<br/>samples = 1<br/>value = 122892.392>, fillcolor="#f8dbc7"] ;
120 -> 122 ;
123 [label=<distance_up_level &le; -0.687<br/>squared_error = 481895.172<br/>samples = 3<br/>value = 125365.09>, fillcolor="#f7d8c2"] ;
117 -> 123 ;
124 [label=<squared_error = 665.841<br/>samples = 2<br/>value = 125855.728>, fillcolor="#f7d8c1"] ;
123 -> 124 ;
125 [label=<squared_error = -0.0<br/>samples = 1<br/>value = 124383.814>, fillcolor="#f7dac4"] ;
123 -> 125 ;
126 [label=<mant_excl &le; 0.101<br/>squared_error = 9302991.029<br/>samples = 2<br/>value = 118451.252>, fillcolor="#f9e1d0"] ;
92 -> 126 ;
127 [label=<squared_error = 0.0<br/>samples = 1<br/>value = 121501.333>, fillcolor="#f8ddca"] ;
126 -> 127 ;
128 [label=<squared_error = 0.0<br/>samples = 1<br/>value = 115401.172>, fillcolor="#fae5d6"] ;
126 -> 128 ;
129 [label=<distance_up_level &le; -0.858<br/>squared_error = 54887.606<br/>samples = 2<br/>value = 114988.621>, fillcolor="#fae5d6"] ;
91 -> 129 ;
130 [label=<squared_error = 0.0<br/>samples = 1<br/>value = 115222.902>, fillcolor="#fae5d6"] ;
129 -> 130 ;
131 [label=<squared_error = -0.0<br/>samples = 1<br/>value = 114754.34>, fillcolor="#fae5d7"] ;
129 -> 131 ;
132 [label=<squared_error = -0.0<br/>samples = 1<br/>value = 110220.076>, fillcolor="#fbebe0"] ;
90 -> 132 ;
133 [label=<mecanica &le; -0.412<br/>squared_error = 35560438.876<br/>samples = 9<br/>value = 130426.703>, fillcolor="#f6d2b9"] ;
89 -> 133 ;
134 [label=<month_6 &le; 0.5<br/>squared_error = 8062964.767<br/>samples = 2<br/>value = 122189.722>, fillcolor="#f8dcc9"] ;
133 -> 134 ;
135 [label=<squared_error = 0.0<br/>samples = 1<br/>value = 119350.186>, fillcolor="#f9e0ce"] ;
134 -> 135 ;
136 [label=<squared_error = -0.0<br/>samples = 1<br/>value = 125029.258>, fillcolor="#f7d9c3"] ;
134 -> 136 ;
137 [label=<mec_excl &le; 1.044<br/>squared_error = 18493161.68<br/>samples = 7<br/>value = 132780.125>, fillcolor="#f5cfb4"] ;
133 -> 137 ;
138 [label=<waiting &le; 0.268<br/>squared_error = 6956871.491<br/>samples = 6<br/>value = 131335.011>, fillcolor="#f6d1b7"] ;
137 -> 138 ;
139 [label=<lift_down &le; 0.365<br/>squared_error = 1083821.979<br/>samples = 4<br/>value = 133097.416>, fillcolor="#f5cfb3"] ;
138 -> 139 ;
140 [label=<lift_down_level &le; 0.801<br/>squared_error = 101161.239<br/>samples = 3<br/>value = 132517.775>, fillcolor="#f5d0b5"] ;
139 -> 140 ;
141 [label=<squared_error = 3013.462<br/>samples = 2<br/>value = 132740.432>, fillcolor="#f5cfb4"] ;
140 -> 141 ;
142 [label=<squared_error = -0.0<br/>samples = 1<br/>value = 132072.461>, fillcolor="#f5d0b5"] ;
140 -> 142 ;
143 [label=<squared_error = 0.0<br/>samples = 1<br/>value = 134836.339>, fillcolor="#f5cdb0"] ;
139 -> 143 ;
144 [label=<lift_up &le; -0.258<br/>squared_error = 66550.104<br/>samples = 2<br/>value = 127810.202>, fillcolor="#f6d5be"] ;
138 -> 144 ;
145 [label=<squared_error = 0.0<br/>samples = 1<br/>value = 127552.229>, fillcolor="#f6d6be"] ;
144 -> 145 ;
146 [label=<squared_error = 0.0<br/>samples = 1<br/>value = 128068.175>, fillcolor="#f6d5bd"] ;
144 -> 146 ;
147 [label=<squared_error = 0.0<br/>samples = 1<br/>value = 141450.81>, fillcolor="#f3c5a3"] ;
137 -> 147 ;
148 [label=<squared_error = -0.0<br/>samples = 1<br/>value = 97868.129>, fillcolor="#fefaf7"] ;
88 -> 148 ;
149 [label=<expected_time &le; 0.28<br/>squared_error = 82205549.774<br/>samples = 31<br/>value = 134677.271>, fillcolor="#f5cdb0"] ;
87 -> 149 ;
150 [label=<mant_excl &le; -0.771<br/>squared_error = 84965879.4<br/>samples = 17<br/>value = 130052.429>, fillcolor="#f6d3b9"] ;
149 -> 150 ;
151 [label=<day_20 &le; 0.5<br/>squared_error = 43145894.628<br/>samples = 4<br/>value = 140823.107>, fillcolor="#f3c5a5"] ;
150 -> 151 ;
152 [label=<shift_B &le; 0.5<br/>squared_error = 3536011.936<br/>samples = 3<br/>value = 144497.064>, fillcolor="#f2c19e"] ;
151 -> 152 ;
153 [label=<waiting &le; -0.176<br/>squared_error = 1176608.005<br/>samples = 2<br/>value = 143324.118>, fillcolor="#f2c2a0"] ;
152 -> 153 ;
154 [label=<squared_error = 0.0<br/>samples = 1<br/>value = 144408.833>, fillcolor="#f2c19e"] ;
153 -> 154 ;
155 [label=<squared_error = 0.0<br/>samples = 1<br/>value = 142239.402>, fillcolor="#f3c4a2"] ;
153 -> 155 ;
156 [label=<squared_error = 0.0<br/>samples = 1<br/>value = 146842.957>, fillcolor="#f2be99"] ;
152 -> 156 ;
157 [label=<squared_error = -0.0<br/>samples = 1<br/>value = 129801.235>, fillcolor="#f6d3ba"] ;
151 -> 157 ;
158 [label=<lift_down &le; 0.211<br/>squared_error = 51155991.332<br/>samples = 13<br/>value = 126738.374>, fillcolor="#f7d7c0"] ;
150 -> 158 ;
159 [label=<efectivo &le; -0.348<br/>squared_error = 20853116.723<br/>samples = 3<br/>value = 135872.217>, fillcolor="#f4ccae"] ;
158 -> 159 ;
160 [label=<lift_down_level &le; -0.119<br/>squared_error = 2651243.528<br/>samples = 2<br/>value = 138961.361>, fillcolor="#f4c8a8"] ;
159 -> 160 ;
161 [label=<squared_error = 0.0<br/>samples = 1<br/>value = 140589.625>, fillcolor="#f3c6a5"] ;
160 -> 161 ;
162 [label=<squared_error = 0.0<br/>samples = 1<br/>value = 137333.097>, fillcolor="#f4caab"] ;
160 -> 162 ;
163 [label=<squared_error = 0.0<br/>samples = 1<br/>value = 129693.929>, fillcolor="#f6d3ba"] ;
159 -> 163 ;
164 [label=<mec_excl &le; 1.482<br/>squared_error = 27710289.109<br/>samples = 10<br/>value = 123998.221>, fillcolor="#f7dac5"] ;
158 -> 164 ;
165 [label=<distance_down_level &le; -1.15<br/>squared_error = 11275411.995<br/>samples = 8<br/>value = 126136.939>, fillcolor="#f7d7c1"] ;
164 -> 165 ;
166 [label=<squared_error = 0.0<br/>samples = 1<br/>value = 118611.386>, fillcolor="#f9e1cf"] ;
165 -> 166 ;
167 [label=<lift_down &le; 0.263<br/>squared_error = 3639827.344<br/>samples = 7<br/>value = 127212.018>, fillcolor="#f7d6bf"] ;
165 -> 167 ;
168 [label=<squared_error = 0.0<br/>samples = 1<br/>value = 130757.68>, fillcolor="#f6d2b8"] ;
167 -> 168 ;
169 [label=<distance_up &le; 0.27<br/>squared_error = 1801963.499<br/>samples = 6<br/>value = 126621.074>, fillcolor="#f7d7c0"] ;
167 -> 169 ;
170 [label=<r_noprg &le; 1.109<br/>squared_error = 245402.81<br/>samples = 2<br/>value = 128355.456>, fillcolor="#f6d5bd"] ;
169 -> 170 ;
171 [label=<squared_error = 0.0<br/>samples = 1<br/>value = 127860.074>, fillcolor="#f6d5be"] ;
170 -> 171 ;
172 [label=<squared_error = 0.0<br/>samples = 1<br/>value = 128850.837>, fillcolor="#f6d4bc"] ;
170 -> 172 ;
173 [label=<r_noprg &le; 0.751<br/>squared_error = 324183.928<br/>samples = 4<br/>value = 125753.883>, fillcolor="#f7d8c2"] ;
169 -> 173 ;
174 [label=<squared_error = 17422.481<br/>samples = 3<br/>value = 125431.849>, fillcolor="#f7d8c2"] ;
173 -> 174 ;
175 [label=<squared_error = 0.0<br/>samples = 1<br/>value = 126719.984>, fillcolor="#f7d7c0"] ;
173 -> 175 ;
176 [label=<r_prog &le; -0.573<br/>squared_error = 1967534.981<br/>samples = 2<br/>value = 115443.35>, fillcolor="#fae5d6"] ;
164 -> 176 ;
177 [label=<squared_error = 0.0<br/>samples = 1<br/>value = 116846.039>, fillcolor="#f9e3d3"] ;
176 -> 177 ;
178 [label=<squared_error = 0.0<br/>samples = 1<br/>value = 114040.662>, fillcolor="#fae6d8"] ;
176 -> 178 ;
179 [label=<travel_time &le; -0.008<br/>squared_error = 21343052.413<br/>samples = 14<br/>value = 140293.151>, fillcolor="#f3c6a6"] ;
149 -> 179 ;
180 [label=<r_prog &le; -0.789<br/>squared_error = 2015269.688<br/>samples = 2<br/>value = 148107.007>, fillcolor="#f1bd97"] ;
179 -> 180 ;
181 [label=<squared_error = 0.0<br/>samples = 1<br/>value = 149526.609>, fillcolor="#f1bb94"] ;
180 -> 181 ;
182 [label=<squared_error = 0.0<br/>samples = 1<br/>value = 146687.405>, fillcolor="#f2be99"] ;
180 -> 182 ;
183 [label=<mec_excl &le; 1.2<br/>squared_error = 12692282.809<br/>samples = 12<br/>value = 138990.842>, fillcolor="#f4c8a8"] ;
179 -> 183 ;
184 [label=<demora &le; -0.485<br/>squared_error = 6225522.095<br/>samples = 7<br/>value = 136795.882>, fillcolor="#f4caac"] ;
183 -> 184 ;
185 [label=<distance_down_level &le; 0.603<br/>squared_error = 1051752.438<br/>samples = 4<br/>value = 138682.696>, fillcolor="#f4c8a9"] ;
184 -> 185 ;
186 [label=<lift_down &le; 0.077<br/>squared_error = 424487.515<br/>samples = 3<br/>value = 139177.127>, fillcolor="#f4c7a8"] ;
185 -> 186 ;
187 [label=<squared_error = 0.0<br/>samples = 1<br/>value = 140085.895>, fillcolor="#f3c6a6"] ;
186 -> 187 ;
188 [label=<squared_error = 17336.975<br/>samples = 2<br/>value = 138722.743>, fillcolor="#f4c8a9"] ;
186 -> 188 ;
189 [label=<squared_error = 0.0<br/>samples = 1<br/>value = 137199.402>, fillcolor="#f4caac"] ;
185 -> 189 ;
190 [label=<distance_down_level &le; 0.499<br/>squared_error = 2048120.533<br/>samples = 3<br/>value = 134280.13>, fillcolor="#f5cdb1"] ;
184 -> 190 ;
191 [label=<mantencion &le; 1.516<br/>squared_error = 125386.814<br/>samples = 2<br/>value = 135271.223>, fillcolor="#f5ccaf"] ;
190 -> 191 ;
192 [label=<squared_error = 0.0<br/>samples = 1<br/>value = 135625.323>, fillcolor="#f4ccaf"] ;
191 -> 192 ;
193 [label=<squared_error = -0.0<br/>samples = 1<br/>value = 134917.123>, fillcolor="#f5cdb0"] ;
191 -> 193 ;
194 [label=<squared_error = 0.0<br/>samples = 1<br/>value = 132297.945>, fillcolor="#f5d0b5"] ;
190 -> 194 ;
195 [label=<Kom.930E-4SE &le; 1.063<br/>squared_error = 5557776.662<br/>samples = 5<br/>value = 142063.786>, fillcolor="#f3c4a2"] ;
183 -> 195 ;
196 [label=<demora &le; -0.52<br/>squared_error = 932931.955<br/>samples = 2<br/>value = 139354.584>, fillcolor="#f3c7a7"] ;
195 -> 196 ;
197 [label=<squared_error = 0.0<br/>samples = 1<br/>value = 140320.468>, fillcolor="#f3c6a6"] ;
196 -> 197 ;
198 [label=<squared_error = -0.0<br/>samples = 1<br/>value = 138388.7>, fillcolor="#f4c8a9"] ;
196 -> 198 ;
199 [label=<mec_excl &le; 2.711<br/>squared_error = 485702.949<br/>samples = 3<br/>value = 143869.92>, fillcolor="#f2c29f"] ;
195 -> 199 ;
200 [label=<efectivo &le; 0.157<br/>squared_error = 43230.102<br/>samples = 2<br/>value = 144347.875>, fillcolor="#f2c19e"] ;
199 -> 200 ;
201 [label=<squared_error = 0.0<br/>samples = 1<br/>value = 144139.957>, fillcolor="#f2c19e"] ;
200 -> 201 ;
202 [label=<squared_error = -0.0<br/>samples = 1<br/>value = 144555.794>, fillcolor="#f2c19d"] ;
200 -> 202 ;
203 [label=<squared_error = 0.0<br/>samples = 1<br/>value = 142914.009>, fillcolor="#f3c3a1"] ;
199 -> 203 ;
204 [label=<efectivo &le; -0.933<br/>squared_error = 87926507.114<br/>samples = 47<br/>value = 121248.741>, fillcolor="#f8ddca"] ;
86 -> 204 ;
205 [label=<lift_down &le; 0.368<br/>squared_error = 19948569.64<br/>samples = 3<br/>value = 104397.772>, fillcolor="#fcf2eb"] ;
204 -> 205 ;
206 [label=<waiting &le; -0.125<br/>squared_error = 100677.45<br/>samples = 2<br/>value = 107550.664>, fillcolor="#fceee5"] ;
205 -> 206 ;
207 [label=<squared_error = 0.0<br/>samples = 1<br/>value = 107233.367>, fillcolor="#fcefe5"] ;
206 -> 207 ;
208 [label=<squared_error = -0.0<br/>samples = 1<br/>value = 107867.961>, fillcolor="#fbeee4"] ;
206 -> 208 ;
209 [label=<squared_error = 0.0<br/>samples = 1<br/>value = 98091.989>, fillcolor="#fefaf7"] ;
205 -> 209 ;
210 [label=<CAT 798-AC &le; 1.09<br/>squared_error = 71880749.061<br/>samples = 44<br/>value = 122397.671>, fillcolor="#f8dcc8"] ;
204 -> 210 ;
211 [label=<r_noprg &le; -0.503<br/>squared_error = 55027059.426<br/>samples = 39<br/>value = 124071.133>, fillcolor="#f7dac5"] ;
210 -> 211 ;
212 [label=<day_17 &le; 0.5<br/>squared_error = 17434578.385<br/>samples = 5<br/>value = 113228.434>, fillcolor="#fae7da"] ;
211 -> 212 ;
213 [label=<r_prog &le; 0.796<br/>squared_error = 4722731.944<br/>samples = 4<br/>value = 115076.162>, fillcolor="#fae5d6"] ;
212 -> 213 ;
214 [label=<mantencion &le; 1.177<br/>squared_error = 174384.294<br/>samples = 2<br/>value = 117199.1>, fillcolor="#f9e2d2"] ;
213 -> 214 ;
215 [label=<squared_error = 0.0<br/>samples = 1<br/>value = 116781.506>, fillcolor="#f9e3d3"] ;
214 -> 215 ;
216 [label=<squared_error = -0.0<br/>samples = 1<br/>value = 117616.693>, fillcolor="#f9e2d1"] ;
214 -> 216 ;
217 [label=<KOM-CHQ &le; 0.581<br/>squared_error = 257354.289<br/>samples = 2<br/>value = 112953.225>, fillcolor="#fae8da"] ;
213 -> 217 ;
218 [label=<squared_error = 0.0<br/>samples = 1<br/>value = 112445.924>, fillcolor="#fae8db"] ;
217 -> 218 ;
219 [label=<squared_error = 0.0<br/>samples = 1<br/>value = 113460.526>, fillcolor="#fae7d9"] ;
217 -> 219 ;
220 [label=<squared_error = -0.0<br/>samples = 1<br/>value = 105837.523>, fillcolor="#fcf0e8"] ;
212 -> 220 ;
221 [label=<expected_time &le; 0.985<br/>squared_error = 40724049.581<br/>samples = 34<br/>value = 125665.647>, fillcolor="#f7d8c2"] ;
211 -> 221 ;
222 [label=<distance_up &le; 0.145<br/>squared_error = 36031772.295<br/>samples = 30<br/>value = 124637.088>, fillcolor="#f7d9c4"] ;
221 -> 222 ;
223 [label=<day_27 &le; 0.5<br/>squared_error = 2567017.745<br/>samples = 2<br/>value = 136868.389>, fillcolor="#f4caac"] ;
222 -> 223 ;
224 [label=<squared_error = 0.0<br/>samples = 1<br/>value = 138470.58>, fillcolor="#f4c8a9"] ;
223 -> 224 ;
225 [label=<squared_error = 0.0<br/>samples = 1<br/>value = 135266.197>, fillcolor="#f5ccaf"] ;
223 -> 225 ;
226 [label=<lift_down &le; 0.367<br/>squared_error = 26972771.3<br/>samples = 28<br/>value = 123763.423>, fillcolor="#f7dac5"] ;
222 -> 226 ;
227 [label=<r_noprg &le; 0.882<br/>squared_error = 21078707.272<br/>samples = 26<br/>value = 124517.878>, fillcolor="#f7d9c4"] ;
226 -> 227 ;
228 [label=<mant_excl &le; 0.94<br/>squared_error = 16539673.747<br/>samples = 19<br/>value = 123103.843>, fillcolor="#f8dbc7"] ;
227 -> 228 ;
229 [label=<expected_time &le; 0.779<br/>squared_error = 13033734.823<br/>samples = 16<br/>value = 122085.772>, fillcolor="#f8dcc9"] ;
228 -> 229 ;
230 [label=<distance_up &le; 0.648<br/>squared_error = 12688074.595<br/>samples = 12<br/>value = 121094.933>, fillcolor="#f8decb"] ;
229 -> 230 ;
231 [label=<travel_time &le; 0.655<br/>squared_error = 11829827.429<br/>samples = 5<br/>value = 123826.908>, fillcolor="#f7dac5"] ;
230 -> 231 ;
232 [label=<mantencion &le; -0.971<br/>squared_error = 2417915.711<br/>samples = 3<br/>value = 121197.773>, fillcolor="#f8deca"] ;
231 -> 232 ;
233 [label=<squared_error = 0.0<br/>samples = 1<br/>value = 119251.44>, fillcolor="#f9e0ce"] ;
232 -> 233 ;
234 [label=<mecanica &le; 1.088<br/>squared_error = 785715.599<br/>samples = 2<br/>value = 122170.939>, fillcolor="#f8dcc9"] ;
232 -> 234 ;
235 [label=<squared_error = 0.0<br/>samples = 1<br/>value = 123057.345>, fillcolor="#f8dbc7"] ;
234 -> 235 ;
236 [label=<squared_error = -0.0<br/>samples = 1<br/>value = 121284.533>, fillcolor="#f8ddca"] ;
234 -> 236 ;
237 [label=<squared_error = 26372.425<br/>samples = 2<br/>value = 127770.611>, fillcolor="#f6d5be"] ;
231 -> 237 ;
238 [label=<lift_down &le; 0.254<br/>squared_error = 4161897.478<br/>samples = 7<br/>value = 119143.522>, fillcolor="#f9e0ce"] ;
230 -> 238 ;
239 [label=<lift_up &le; -0.072<br/>squared_error = 1851299.8<br/>samples = 5<br/>value = 120133.982>, fillcolor="#f8dfcc"] ;
238 -> 239 ;
240 [label=<waiting &le; -0.567<br/>squared_error = 717944.447<br/>samples = 2<br/>value = 121575.163>, fillcolor="#f8ddca"] ;
239 -> 240 ;
241 [label=<squared_error = 0.0<br/>samples = 1<br/>value = 120727.847>, fillcolor="#f8decb"] ;
240 -> 241 ;
242 [label=<squared_error = -0.0<br/>samples = 1<br/>value = 122422.479>, fillcolor="#f8dcc8"] ;
240 -> 242 ;
243 [label=<queued &le; -0.319<br/>squared_error = 299090.338<br/>samples = 3<br/>value = 119173.195>, fillcolor="#f9e0ce"] ;
239 -> 243 ;
244 [label=<squared_error = 600.788<br/>samples = 2<br/>value = 119559.647>, fillcolor="#f9e0ce"] ;
243 -> 244 ;
245 [label=<squared_error = -0.0<br/>samples = 1<br/>value = 118400.292>, fillcolor="#f9e1d0"] ;
243 -> 245 ;
246 [label=<waiting &le; -0.703<br/>squared_error = 1354536.217<br/>samples = 2<br/>value = 116667.371>, fillcolor="#f9e3d3"] ;
238 -> 246 ;
247 [label=<squared_error = 0.0<br/>samples = 1<br/>value = 115503.525>, fillcolor="#fae5d5"] ;
246 -> 247 ;
248 [label=<squared_error = 0.0<br/>samples = 1<br/>value = 117831.216>, fillcolor="#f9e2d1"] ;
246 -> 248 ;
249 [label=<lift_up &le; 0.083<br/>squared_error = 2289570.997<br/>samples = 4<br/>value = 125058.289>, fillcolor="#f7d9c3"] ;
229 -> 249 ;
250 [label=<expected_time &le; 0.922<br/>squared_error = 431386.621<br/>samples = 3<br/>value = 124248.756>, fillcolor="#f7dac5"] ;
249 -> 250 ;
251 [label=<r_prog &le; 0.766<br/>squared_error = 71587.33<br/>samples = 2<br/>value = 123810.771>, fillcolor="#f7dac5"] ;
250 -> 251 ;
252 [label=<squared_error = 0.0<br/>samples = 1<br/>value = 124078.329>, fillcolor="#f7dac5"] ;
251 -> 252 ;
253 [label=<squared_error = 0.0<br/>samples = 1<br/>value = 123543.213>, fillcolor="#f8dbc6"] ;
251 -> 253 ;
254 [label=<squared_error = 0.0<br/>samples = 1<br/>value = 125124.726>, fillcolor="#f7d9c3"] ;
250 -> 254 ;
255 [label=<squared_error = 0.0<br/>samples = 1<br/>value = 127486.888>, fillcolor="#f7d6be"] ;
249 -> 255 ;
256 [label=<month_10 &le; 0.5<br/>squared_error = 228369.047<br/>samples = 3<br/>value = 128533.559>, fillcolor="#f6d5bc"] ;
228 -> 256 ;
257 [label=<squared_error = 6712.856<br/>samples = 2<br/>value = 128198.974>, fillcolor="#f6d5bd"] ;
256 -> 257 ;
258 [label=<squared_error = -0.0<br/>samples = 1<br/>value = 129202.728>, fillcolor="#f6d4bb"] ;
256 -> 258 ;
259 [label=<CAT 797-F &le; 0.356<br/>squared_error = 13240784.172<br/>samples = 7<br/>value = 128355.971>, fillcolor="#f6d5bd"] ;
227 -> 259 ;
260 [label=<crew_E2 &le; 0.5<br/>squared_error = 1498860.33<br/>samples = 2<br/>value = 123180.813>, fillcolor="#f8dbc7"] ;
259 -> 260 ;
261 [label=<squared_error = 0.0<br/>samples = 1<br/>value = 124405.092>, fillcolor="#f7dac4"] ;
260 -> 261 ;
262 [label=<squared_error = -0.0<br/>samples = 1<br/>value = 121956.533>, fillcolor="#f8ddc9"] ;
260 -> 262 ;
263 [label=<queued &le; -0.979<br/>squared_error = 2939484.31<br/>samples = 5<br/>value = 130426.035>, fillcolor="#f6d2b9"] ;
259 -> 263 ;
264 [label=<lift_up &le; 0.541<br/>squared_error = 1231799.391<br/>samples = 2<br/>value = 128533.998>, fillcolor="#f6d5bc"] ;
263 -> 264 ;
265 [label=<squared_error = 0.0<br/>samples = 1<br/>value = 129643.862>, fillcolor="#f6d3ba"] ;
264 -> 265 ;
266 [label=<squared_error = 0.0<br/>samples = 1<br/>value = 127424.133>, fillcolor="#f7d6be"] ;
264 -> 266 ;
267 [label=<mantencion &le; -0.715<br/>squared_error = 100380.746<br/>samples = 3<br/>value = 131687.393>, fillcolor="#f5d1b6"] ;
263 -> 267 ;
268 [label=<squared_error = 0.0<br/>samples = 1<br/>value = 131248.021>, fillcolor="#f6d1b7"] ;
267 -> 268 ;
269 [label=<squared_error = 5785.491<br/>samples = 2<br/>value = 131907.079>, fillcolor="#f5d0b6"] ;
267 -> 269 ;
270 [label=<squared_error = 958.456<br/>samples = 2<br/>value = 113955.517>, fillcolor="#fae6d8"] ;
226 -> 270 ;
271 [label=<travel_time &le; 0.634<br/>squared_error = 8472799.425<br/>samples = 4<br/>value = 133379.843>, fillcolor="#f5cfb3"] ;
221 -> 271 ;
272 [label=<squared_error = 0.0<br/>samples = 1<br/>value = 137747.474>, fillcolor="#f4c9ab"] ;
271 -> 272 ;
273 [label=<travel_time &le; 0.747<br/>squared_error = 2818755.799<br/>samples = 3<br/>value = 131923.966>, fillcolor="#f5d0b6"] ;
271 -> 273 ;
274 [label=<squared_error = 0.0<br/>samples = 1<br/>value = 129560.184>, fillcolor="#f6d3ba"] ;
273 -> 274 ;
275 [label=<waiting &le; -0.345<br/>squared_error = 37533.829<br/>samples = 2<br/>value = 133105.858>, fillcolor="#f5cfb3"] ;
273 -> 275 ;
276 [label=<squared_error = 0.0<br/>samples = 1<br/>value = 132912.121>, fillcolor="#f5cfb4"] ;
275 -> 276 ;
277 [label=<squared_error = 0.0<br/>samples = 1<br/>value = 133299.594>, fillcolor="#f5cfb3"] ;
275 -> 277 ;
278 [label=<queued &le; -0.037<br/>squared_error = 11114867.864<br/>samples = 5<br/>value = 109344.665>, fillcolor="#fbece1"] ;
210 -> 278 ;
279 [label=<lift_up &le; -0.167<br/>squared_error = 2142562.403<br/>samples = 3<br/>value = 111852.817>, fillcolor="#fae9dc"] ;
278 -> 279 ;
280 [label=<squared_error = 0.0<br/>samples = 1<br/>value = 109809.921>, fillcolor="#fbece0"] ;
279 -> 280 ;
281 [label=<r_prog &le; 0.258<br/>squared_error = 83774.647<br/>samples = 2<br/>value = 112874.265>, fillcolor="#fae8da"] ;
279 -> 281 ;
282 [label=<squared_error = 0.0<br/>samples = 1<br/>value = 112584.827>, fillcolor="#fae8db"] ;
281 -> 282 ;
283 [label=<squared_error = 0.0<br/>samples = 1<br/>value = 113163.704>, fillcolor="#fae7da"] ;
281 -> 283 ;
284 [label=<queued &le; 0.142<br/>squared_error = 982725.136<br/>samples = 2<br/>value = 105582.437>, fillcolor="#fcf1e9"] ;
278 -> 284 ;
285 [label=<squared_error = 0.0<br/>samples = 1<br/>value = 104591.112>, fillcolor="#fcf2ea"] ;
284 -> 285 ;
286 [label=<squared_error = -0.0<br/>samples = 1<br/>value = 106573.762>, fillcolor="#fcefe7"] ;
284 -> 286 ;
287 [label=<distance_up &le; 0.498<br/>squared_error = 119153447.007<br/>samples = 92<br/>value = 130591.403>, fillcolor="#f6d2b8"] ;
3 -> 287 ;
288 [label=<mant_excl &le; 0.53<br/>squared_error = 103249914.373<br/>samples = 44<br/>value = 127282.574>, fillcolor="#f7d6bf"] ;
287 -> 288 ;
289 [label=<mant_excl &le; 0.292<br/>squared_error = 74096133.394<br/>samples = 39<br/>value = 129166.037>, fillcolor="#f6d4bb"] ;
288 -> 289 ;
290 [label=<lift_down_level &le; 0.344<br/>squared_error = 54630941.253<br/>samples = 36<br/>value = 127976.564>, fillcolor="#f6d5bd"] ;
289 -> 290 ;
291 [label=<distance_down_level &le; -0.289<br/>squared_error = 47378372.675<br/>samples = 15<br/>value = 131724.878>, fillcolor="#f5d1b6"] ;
290 -> 291 ;
292 [label=<squared_error = 0.0<br/>samples = 1<br/>value = 151903.6>, fillcolor="#f0b88f"] ;
291 -> 292 ;
293 [label=<mecanica &le; -0.016<br/>squared_error = 19600745.433<br/>samples = 14<br/>value = 130283.541>, fillcolor="#f6d2b9"] ;
291 -> 293 ;
294 [label=<lift_down_level &le; -0.107<br/>squared_error = 3573219.128<br/>samples = 5<br/>value = 125659.822>, fillcolor="#f7d8c2"] ;
293 -> 294 ;
295 [label=<squared_error = 13857.418<br/>samples = 2<br/>value = 123419.343>, fillcolor="#f8dbc6"] ;
294 -> 295 ;
296 [label=<efectivo &le; 0.159<br/>squared_error = 368632.374<br/>samples = 3<br/>value = 127153.475>, fillcolor="#f7d6bf"] ;
294 -> 296 ;
297 [label=<squared_error = 0.0<br/>samples = 1<br/>value = 128001.323>, fillcolor="#f6d5bd"] ;
296 -> 297 ;
298 [label=<squared_error = 13813.425<br/>samples = 2<br/>value = 126729.551>, fillcolor="#f7d7c0"] ;
296 -> 298 ;
299 [label=<distance_up &le; 0.122<br/>squared_error = 10029440.928<br/>samples = 9<br/>value = 132852.274>, fillcolor="#f5cfb4"] ;
293 -> 299 ;
300 [label=<squared_error = 0.0<br/>samples = 1<br/>value = 140660.833>, fillcolor="#f3c6a5"] ;
299 -> 300 ;
301 [label=<travel_time &le; -0.071<br/>squared_error = 2708708.98<br/>samples = 8<br/>value = 131876.204>, fillcolor="#f5d0b6"] ;
299 -> 301 ;
302 [label=<waiting &le; -0.89<br/>squared_error = 920654.841<br/>samples = 3<br/>value = 130047.956>, fillcolor="#f6d3b9"] ;
301 -> 302 ;
303 [label=<squared_error = 0.0<br/>samples = 1<br/>value = 128856.621>, fillcolor="#f6d4bc"] ;
302 -> 303 ;
304 [label=<distance_up &le; 0.296<br/>squared_error = 316522.764<br/>samples = 2<br/>value = 130643.623>, fillcolor="#f6d2b8"] ;
302 -> 304 ;
305 [label=<squared_error = 0.0<br/>samples = 1<br/>value = 130081.02>, fillcolor="#f6d3b9"] ;
304 -> 305 ;
306 [label=<squared_error = -0.0<br/>samples = 1<br/>value = 131206.227>, fillcolor="#f6d1b7"] ;
304 -> 306 ;
307 [label=<distance_down_level &le; 0.346<br/>squared_error = 572750.327<br/>samples = 5<br/>value = 132973.153>, fillcolor="#f5cfb4"] ;
301 -> 307 ;
308 [label=<distance_up &le; 0.356<br/>squared_error = 153622.904<br/>samples = 3<br/>value = 133523.744>, fillcolor="#f5ceb3"] ;
307 -> 308 ;
309 [label=<squared_error = 18685.781<br/>samples = 2<br/>value = 133258.07>, fillcolor="#f5cfb3"] ;
308 -> 309 ;
310 [label=<squared_error = -0.0<br/>samples = 1<br/>value = 134055.093>, fillcolor="#f5ceb2"] ;
308 -> 310 ;
311 [label=<mecanica &le; 0.668<br/>squared_error = 64624.216<br/>samples = 2<br/>value = 132147.265>, fillcolor="#f5d0b5"] ;
307 -> 311 ;
312 [label=<squared_error = 0.0<br/>samples = 1<br/>value = 132401.478>, fillcolor="#f5d0b5"] ;
311 -> 312 ;
313 [label=<squared_error = -0.0<br/>samples = 1<br/>value = 131893.052>, fillcolor="#f5d0b6"] ;
311 -> 313 ;
314 [label=<travel_time &le; 0.193<br/>squared_error = 42607433.931<br/>samples = 21<br/>value = 125299.196>, fillcolor="#f7d9c3"] ;
290 -> 314 ;
315 [label=<mant_excl &le; -1.447<br/>squared_error = 26672622.603<br/>samples = 15<br/>value = 128298.228>, fillcolor="#f6d5bd"] ;
314 -> 315 ;
316 [label=<waiting &le; -0.831<br/>squared_error = 20031178.797<br/>samples = 2<br/>value = 138372.112>, fillcolor="#f4c8a9"] ;
315 -> 316 ;
317 [label=<squared_error = 0.0<br/>samples = 1<br/>value = 133896.491>, fillcolor="#f5ceb2"] ;
316 -> 317 ;
318 [label=<squared_error = 0.0<br/>samples = 1<br/>value = 142847.732>, fillcolor="#f3c3a1"] ;
316 -> 318 ;
319 [label=<waiting &le; -0.983<br/>squared_error = 9679627.429<br/>samples = 13<br/>value = 126748.4>, fillcolor="#f7d7c0"] ;
315 -> 319 ;
320 [label=<queued &le; 1.261<br/>squared_error = 5568269.995<br/>samples = 4<br/>value = 123164.197>, fillcolor="#f8dbc7"] ;
319 -> 320 ;
321 [label=<squared_error = 0.0<br/>samples = 1<br/>value = 119474.247>, fillcolor="#f9e0ce"] ;
320 -> 321 ;
322 [label=<shift_B &le; 0.5<br/>squared_error = 1372924.858<br/>samples = 3<br/>value = 124394.18>, fillcolor="#f7dac4"] ;
320 -> 322 ;
323 [label=<squared_error = 0.0<br/>samples = 1<br/>value = 122743.404>, fillcolor="#f8dcc7"] ;
322 -> 323 ;
324 [label=<squared_error = 15591.261<br/>samples = 2<br/>value = 125219.568>, fillcolor="#f7d9c3"] ;
322 -> 324 ;
325 [label=<Komatsu AHS &le; -0.429<br/>squared_error = 3259752.842<br/>samples = 9<br/>value = 128341.379>, fillcolor="#f6d5bd"] ;
319 -> 325 ;
326 [label=<mec_excl &le; -0.002<br/>squared_error = 1409017.069<br/>samples = 8<br/>value = 127840.469>, fillcolor="#f6d5be"] ;
325 -> 326 ;
327 [label=<squared_error = 0.0<br/>samples = 1<br/>value = 125455.626>, fillcolor="#f7d8c2"] ;
326 -> 327 ;
328 [label=<day_4 &le; 0.5<br/>squared_error = 681738.02<br/>samples = 7<br/>value = 128181.16>, fillcolor="#f6d5bd"] ;
326 -> 328 ;
329 [label=<distance_up_level &le; -1.18<br/>squared_error = 203891.778<br/>samples = 6<br/>value = 127890.479>, fillcolor="#f6d5be"] ;
328 -> 329 ;
330 [label=<squared_error = 6928.051<br/>samples = 2<br/>value = 128453.524>, fillcolor="#f6d5bc"] ;
329 -> 330 ;
331 [label=<demora &le; -0.523<br/>squared_error = 64609.001<br/>samples = 4<br/>value = 127608.957>, fillcolor="#f6d6be"] ;
329 -> 331 ;
332 [label=<squared_error = 4011.839<br/>samples = 2<br/>value = 127854.619>, fillcolor="#f6d5be"] ;
331 -> 332 ;
333 [label=<squared_error = 4506.039<br/>samples = 2<br/>value = 127363.294>, fillcolor="#f7d6bf"] ;
331 -> 333 ;
334 [label=<squared_error = 0.0<br/>samples = 1<br/>value = 129925.248>, fillcolor="#f6d3ba"] ;
328 -> 334 ;
335 [label=<squared_error = -0.0<br/>samples = 1<br/>value = 132348.666>, fillcolor="#f5d0b5"] ;
325 -> 335 ;
336 [label=<day_28 &le; 0.5<br/>squared_error = 3745264.765<br/>samples = 6<br/>value = 117801.616>, fillcolor="#f9e2d1"] ;
314 -> 336 ;
337 [label=<Kom.930E-4SE &le; 1.106<br/>squared_error = 1117644.345<br/>samples = 5<br/>value = 118551.802>, fillcolor="#f9e1d0"] ;
336 -> 337 ;
338 [label=<KOM-CHQ &le; 0.581<br/>squared_error = 36022.693<br/>samples = 3<br/>value = 119396.464>, fillcolor="#f9e0ce"] ;
337 -> 338 ;
339 [label=<squared_error = 0.0<br/>samples = 1<br/>value = 119138.882>, fillcolor="#f9e0ce"] ;
338 -> 339 ;
340 [label=<squared_error = 4272.772<br/>samples = 2<br/>value = 119525.255>, fillcolor="#f9e0ce"] ;
338 -> 340 ;
341 [label=<year_2024 &le; 0.5<br/>squared_error = 64623.971<br/>samples = 2<br/>value = 117284.808>, fillcolor="#f9e2d2"] ;
337 -> 341 ;
342 [label=<squared_error = 0.0<br/>samples = 1<br/>value = 117030.596>, fillcolor="#f9e3d2"] ;
341 -> 342 ;
343 [label=<squared_error = 0.0<br/>samples = 1<br/>value = 117539.021>, fillcolor="#f9e2d1"] ;
341 -> 343 ;
344 [label=<squared_error = 0.0<br/>samples = 1<br/>value = 114050.686>, fillcolor="#fae6d8"] ;
336 -> 344 ;
345 [label=<mantencion &le; -0.66<br/>squared_error = 86962481.851<br/>samples = 3<br/>value = 143439.712>, fillcolor="#f2c2a0"] ;
289 -> 345 ;
346 [label=<squared_error = 0.0<br/>samples = 1<br/>value = 131799.753>, fillcolor="#f5d1b6"] ;
345 -> 346 ;
347 [label=<lift_down &le; 0.45<br/>squared_error = 28827239.74<br/>samples = 2<br/>value = 149259.691>, fillcolor="#f1bb94"] ;
345 -> 347 ;
348 [label=<squared_error = 0.0<br/>samples = 1<br/>value = 154628.792>, fillcolor="#f0b58a"] ;
347 -> 348 ;
349 [label=<squared_error = 0.0<br/>samples = 1<br/>value = 143890.591>, fillcolor="#f2c29f"] ;
347 -> 349 ;
350 [label=<crew_E2 &le; 0.5<br/>squared_error = 87153581.692<br/>samples = 5<br/>value = 112591.561>, fillcolor="#fae8db"] ;
288 -> 350 ;
351 [label=<distance_up_level &le; -0.508<br/>squared_error = 15982144.119<br/>samples = 3<br/>value = 105734.635>, fillcolor="#fcf1e8"] ;
350 -> 351 ;
352 [label=<mec_excl &le; 0.635<br/>squared_error = 1983175.041<br/>samples = 2<br/>value = 108442.034>, fillcolor="#fbede3"] ;
351 -> 352 ;
353 [label=<squared_error = 0.0<br/>samples = 1<br/>value = 109850.287>, fillcolor="#fbebe0"] ;
352 -> 353 ;
354 [label=<squared_error = 0.0<br/>samples = 1<br/>value = 107033.782>, fillcolor="#fcefe6"] ;
352 -> 354 ;
355 [label=<squared_error = -0.0<br/>samples = 1<br/>value = 100319.835>, fillcolor="#fdf7f3"] ;
351 -> 355 ;
356 [label=<mec_excl &le; 0.13<br/>squared_error = 17595331.476<br/>samples = 2<br/>value = 122876.951>, fillcolor="#f8dbc7"] ;
350 -> 356 ;
357 [label=<squared_error = 0.0<br/>samples = 1<br/>value = 127071.63>, fillcolor="#f7d6bf"] ;
356 -> 357 ;
358 [label=<squared_error = 0.0<br/>samples = 1<br/>value = 118682.272>, fillcolor="#f9e1cf"] ;
356 -> 358 ;
359 [label=<lift_up &le; -0.071<br/>squared_error = 114496040.986<br/>samples = 48<br/>value = 133624.496>, fillcolor="#f5ceb2"] ;
287 -> 359 ;
360 [label=<lift_down &le; 0.132<br/>squared_error = 63950174.035<br/>samples = 39<br/>value = 135926.728>, fillcolor="#f4cbae"] ;
359 -> 360 ;
361 [label=<crew_E4 &le; 0.5<br/>squared_error = 5528052.026<br/>samples = 2<br/>value = 153264.147>, fillcolor="#f0b68d"] ;
360 -> 361 ;
362 [label=<squared_error = 0.0<br/>samples = 1<br/>value = 155615.328>, fillcolor="#efb388"] ;
361 -> 362 ;
363 [label=<squared_error = 0.0<br/>samples = 1<br/>value = 150912.966>, fillcolor="#f1b991"] ;
361 -> 363 ;
364 [label=<mantencion &le; 0.735<br/>squared_error = 49981964.221<br/>samples = 37<br/>value = 134989.57>, fillcolor="#f5cdb0"] ;
360 -> 364 ;
365 [label=<mantencion &le; 0.1<br/>squared_error = 54161697.442<br/>samples = 27<br/>value = 133377.445>, fillcolor="#f5cfb3"] ;
364 -> 365 ;
366 [label=<waiting &le; -1.175<br/>squared_error = 47346939.173<br/>samples = 20<br/>value = 135746.712>, fillcolor="#f4ccae"] ;
365 -> 366 ;
367 [label=<day_5 &le; 0.5<br/>squared_error = 8810964.775<br/>samples = 2<br/>value = 124166.285>, fillcolor="#f7dac5"] ;
366 -> 367 ;
368 [label=<squared_error = 0.0<br/>samples = 1<br/>value = 121197.958>, fillcolor="#f8deca"] ;
367 -> 368 ;
369 [label=<squared_error = -0.0<br/>samples = 1<br/>value = 127134.612>, fillcolor="#f7d6bf"] ;
367 -> 369 ;
370 [label=<mant_excl &le; -0.19<br/>squared_error = 35072381.471<br/>samples = 18<br/>value = 137033.426>, fillcolor="#f4caac"] ;
366 -> 370 ;
371 [label=<waiting &le; -1.012<br/>squared_error = 23476779.211<br/>samples = 9<br/>value = 141072.283>, fillcolor="#f3c5a4"] ;
370 -> 371 ;
372 [label=<squared_error = 22402.913<br/>samples = 2<br/>value = 148935.988>, fillcolor="#f1bc95"] ;
371 -> 372 ;
373 [label=<mantencion &le; -0.339<br/>squared_error = 7462083.629<br/>samples = 7<br/>value = 138825.51>, fillcolor="#f4c8a8"] ;
371 -> 373 ;
374 [label=<travel_time &le; 0.556<br/>squared_error = 3293369.14<br/>samples = 4<br/>value = 136969.694>, fillcolor="#f4caac"] ;
373 -> 374 ;
375 [label=<squared_error = 0.0<br/>samples = 1<br/>value = 133884.778>, fillcolor="#f5ceb2"] ;
374 -> 375 ;
376 [label=<lift_down &le; 0.275<br/>squared_error = 161510.616<br/>samples = 3<br/>value = 137998.0>, fillcolor="#f4c9aa"] ;
374 -> 376 ;
377 [label=<squared_error = 1869.568<br/>samples = 2<br/>value = 137714.924>, fillcolor="#f4c9ab"] ;
376 -> 377 ;
378 [label=<squared_error = -0.0<br/>samples = 1<br/>value = 138564.152>, fillcolor="#f4c8a9"] ;
376 -> 378 ;
379 [label=<distance_down_level &le; 0.051<br/>squared_error = 2305535.501<br/>samples = 3<br/>value = 141299.932>, fillcolor="#f3c5a4"] ;
373 -> 379 ;
380 [label=<expected_time &le; 0.253<br/>squared_error = 507387.735<br/>samples = 2<br/>value = 140308.147>, fillcolor="#f3c6a6"] ;
379 -> 380 ;
381 [label=<squared_error = 0.0<br/>samples = 1<br/>value = 139595.835>, fillcolor="#f3c7a7"] ;
380 -> 381 ;
382 [label=<squared_error = 0.0<br/>samples = 1<br/>value = 141020.458>, fillcolor="#f3c5a4"] ;
380 -> 382 ;
383 [label=<squared_error = -0.0<br/>samples = 1<br/>value = 143283.503>, fillcolor="#f3c2a0"] ;
379 -> 383 ;
384 [label=<year_2024 &le; 0.5<br/>squared_error = 14043253.859<br/>samples = 9<br/>value = 132994.569>, fillcolor="#f5cfb4"] ;
370 -> 384 ;
385 [label=<r_noprg &le; 0.006<br/>squared_error = 5612014.005<br/>samples = 7<br/>value = 134636.876>, fillcolor="#f5cdb1"] ;
384 -> 385 ;
386 [label=<squared_error = 0.0<br/>samples = 1<br/>value = 129815.924>, fillcolor="#f6d3ba"] ;
385 -> 386 ;
387 [label=<waiting &le; 0.109<br/>squared_error = 2028154.046<br/>samples = 6<br/>value = 135440.368>, fillcolor="#f4ccaf"] ;
385 -> 387 ;
388 [label=<r_noprg &le; 0.069<br/>squared_error = 505974.203<br/>samples = 4<br/>value = 134528.606>, fillcolor="#f5cdb1"] ;
387 -> 388 ;
389 [label=<squared_error = 0.0<br/>samples = 1<br/>value = 133476.244>, fillcolor="#f5ceb3"] ;
388 -> 389 ;
390 [label=<travel_time &le; 0.567<br/>squared_error = 182425.343<br/>samples = 3<br/>value = 134879.393>, fillcolor="#f5cdb0"] ;
388 -> 390 ;
391 [label=<lift_up &le; -0.164<br/>squared_error = 43496.597<br/>samples = 2<br/>value = 134602.421>, fillcolor="#f5cdb1"] ;
390 -> 391 ;
392 [label=<squared_error = 0.0<br/>samples = 1<br/>value = 134810.979>, fillcolor="#f5cdb0"] ;
391 -> 392 ;
393 [label=<squared_error = -0.0<br/>samples = 1<br/>value = 134393.862>, fillcolor="#f5cdb1"] ;
391 -> 393 ;
394 [label=<squared_error = 0.0<br/>samples = 1<br/>value = 135433.338>, fillcolor="#f4ccaf"] ;
390 -> 394 ;
395 [label=<r_prog &le; 1.038<br/>squared_error = 84652.244<br/>samples = 2<br/>value = 137263.892>, fillcolor="#f4caab"] ;
387 -> 395 ;
396 [label=<squared_error = 0.0<br/>samples = 1<br/>value = 136972.942>, fillcolor="#f4caac"] ;
395 -> 396 ;
397 [label=<squared_error = -0.0<br/>samples = 1<br/>value = 137554.843>, fillcolor="#f4c9ab"] ;
395 -> 397 ;
398 [label=<queued &le; 0.543<br/>squared_error = 1072151.472<br/>samples = 2<br/>value = 127246.496>, fillcolor="#f7d6bf"] ;
384 -> 398 ;
399 [label=<squared_error = 0.0<br/>samples = 1<br/>value = 128281.944>, fillcolor="#f6d5bd"] ;
398 -> 399 ;
400 [label=<squared_error = 0.0<br/>samples = 1<br/>value = 126211.049>, fillcolor="#f7d7c1"] ;
398 -> 400 ;
401 [label=<mantencion &le; 0.529<br/>squared_error = 11770173.373<br/>samples = 7<br/>value = 126608.11>, fillcolor="#f7d7c0"] ;
365 -> 401 ;
402 [label=<mecanica &le; 0.361<br/>squared_error = 10095688.492<br/>samples = 4<br/>value = 124502.537>, fillcolor="#f7d9c4"] ;
401 -> 402 ;
403 [label=<lift_up &le; -0.197<br/>squared_error = 253116.182<br/>samples = 2<br/>value = 121693.885>, fillcolor="#f8ddc9"] ;
402 -> 403 ;
404 [label=<squared_error = 0.0<br/>samples = 1<br/>value = 122196.992>, fillcolor="#f8dcc9"] ;
403 -> 404 ;
405 [label=<squared_error = 0.0<br/>samples = 1<br/>value = 121190.779>, fillcolor="#f8deca"] ;
403 -> 405 ;
406 [label=<r_prog &le; 0.437<br/>squared_error = 4161214.516<br/>samples = 2<br/>value = 127311.188>, fillcolor="#f7d6bf"] ;
402 -> 406 ;
407 [label=<squared_error = 0.0<br/>samples = 1<br/>value = 125271.283>, fillcolor="#f7d9c3"] ;
406 -> 407 ;
408 [label=<squared_error = -0.0<br/>samples = 1<br/>value = 129351.094>, fillcolor="#f6d4bb"] ;
406 -> 408 ;
409 [label=<r_noprg &le; -0.222<br/>squared_error = 209904.531<br/>samples = 3<br/>value = 129415.54>, fillcolor="#f6d3bb"] ;
401 -> 409 ;
410 [label=<squared_error = 0.0<br/>samples = 1<br/>value = 128818.873>, fillcolor="#f6d4bc"] ;
409 -> 410 ;
411 [label=<shift_B &le; 0.5<br/>squared_error = 47848.021<br/>samples = 2<br/>value = 129713.874>, fillcolor="#f6d3ba"] ;
409 -> 411 ;
412 [label=<squared_error = 0.0<br/>samples = 1<br/>value = 129495.132>, fillcolor="#f6d3ba"] ;
411 -> 412 ;
413 [label=<squared_error = 0.0<br/>samples = 1<br/>value = 129932.616>, fillcolor="#f6d3ba"] ;
411 -> 413 ;
414 [label=<queued &le; 0.856<br/>squared_error = 12733201.614<br/>samples = 10<br/>value = 139342.308>, fillcolor="#f4c7a7"] ;
364 -> 414 ;
415 [label=<efectivo &le; 0.142<br/>squared_error = 5016163.446<br/>samples = 7<br/>value = 137585.121>, fillcolor="#f4c9ab"] ;
414 -> 415 ;
416 [label=<lift_down_level &le; 0.001<br/>squared_error = 1012618.816<br/>samples = 4<br/>value = 135871.905>, fillcolor="#f4ccae"] ;
415 -> 416 ;
417 [label=<squared_error = 0.0<br/>samples = 1<br/>value = 134179.709>, fillcolor="#f5ceb1"] ;
416 -> 417 ;
418 [label=<mecanica &le; 0.763<br/>squared_error = 77479.961<br/>samples = 3<br/>value = 136435.97>, fillcolor="#f4cbad"] ;
416 -> 418 ;
419 [label=<squared_error = 17370.859<br/>samples = 2<br/>value = 136254.45>, fillcolor="#f4cbad"] ;
418 -> 419 ;
420 [label=<squared_error = -0.0<br/>samples = 1<br/>value = 136799.011>, fillcolor="#f4caac"] ;
418 -> 420 ;
421 [label=<mantencion &le; 1.539<br/>squared_error = 1222772.846<br/>samples = 3<br/>value = 139869.409>, fillcolor="#f3c7a6"] ;
415 -> 421 ;
422 [label=<mantencion &le; 0.904<br/>squared_error = 384193.038<br/>samples = 2<br/>value = 139174.195>, fillcolor="#f4c7a8"] ;
421 -> 422 ;
423 [label=<squared_error = 0.0<br/>samples = 1<br/>value = 139794.028>, fillcolor="#f3c7a7"] ;
422 -> 423 ;
424 [label=<squared_error = 0.0<br/>samples = 1<br/>value = 138554.362>, fillcolor="#f4c8a9"] ;
422 -> 424 ;
425 [label=<squared_error = -0.0<br/>samples = 1<br/>value = 141259.836>, fillcolor="#f3c5a4"] ;
421 -> 425 ;
426 [label=<distance_up &le; 0.63<br/>squared_error = 6724132.903<br/>samples = 3<br/>value = 143442.411>, fillcolor="#f2c2a0"] ;
414 -> 426 ;
427 [label=<squared_error = 0.0<br/>samples = 1<br/>value = 139808.989>, fillcolor="#f3c7a7"] ;
426 -> 427 ;
428 [label=<shift_B &le; 0.5<br/>squared_error = 184884.166<br/>samples = 2<br/>value = 145259.121>, fillcolor="#f2c09c"] ;
426 -> 428 ;
429 [label=<squared_error = 0.0<br/>samples = 1<br/>value = 145689.103>, fillcolor="#f2bf9b"] ;
428 -> 429 ;
430 [label=<squared_error = -0.0<br/>samples = 1<br/>value = 144829.14>, fillcolor="#f2c19d"] ;
428 -> 430 ;
431 [label=<lift_down_level &le; 0.251<br/>squared_error = 211032993.588<br/>samples = 9<br/>value = 123648.159>, fillcolor="#f7dbc6"] ;
359 -> 431 ;
432 [label=<demora &le; -0.416<br/>squared_error = 23606553.304<br/>samples = 3<br/>value = 109403.809>, fillcolor="#fbece1"] ;
431 -> 432 ;
433 [label=<mecanica &le; -0.251<br/>squared_error = 7317460.737<br/>samples = 2<br/>value = 112463.894>, fillcolor="#fae8db"] ;
432 -> 433 ;
434 [label=<squared_error = 0.0<br/>samples = 1<br/>value = 115168.975>, fillcolor="#fae5d6"] ;
433 -> 434 ;
435 [label=<squared_error = 0.0<br/>samples = 1<br/>value = 109758.814>, fillcolor="#fbece0"] ;
433 -> 435 ;
436 [label=<squared_error = -0.0<br/>samples = 1<br/>value = 103283.638>, fillcolor="#fdf4ed"] ;
432 -> 436 ;
437 [label=<CAT 797-F &le; 0.326<br/>squared_error = 152570078.607<br/>samples = 6<br/>value = 130770.334>, fillcolor="#f6d2b8"] ;
431 -> 437 ;
438 [label=<lift_down &le; 0.15<br/>squared_error = 8266176.81<br/>samples = 2<br/>value = 115743.524>, fillcolor="#f9e4d5"] ;
437 -> 438 ;
439 [label=<squared_error = 0.0<br/>samples = 1<br/>value = 118618.62>, fillcolor="#f9e1cf"] ;
438 -> 439 ;
440 [label=<squared_error = -0.0<br/>samples = 1<br/>value = 112868.428>, fillcolor="#fae8da"] ;
438 -> 440 ;
441 [label=<distance_down_level &le; -0.772<br/>squared_error = 55368257.389<br/>samples = 4<br/>value = 138283.74>, fillcolor="#f4c9a9"] ;
437 -> 441 ;
442 [label=<efectivo &le; 0.177<br/>squared_error = 290218.124<br/>samples = 2<br/>value = 130963.965>, fillcolor="#f6d2b8"] ;
441 -> 442 ;
443 [label=<squared_error = 0.0<br/>samples = 1<br/>value = 130425.246>, fillcolor="#f6d2b9"] ;
442 -> 443 ;
444 [label=<squared_error = 0.0<br/>samples = 1<br/>value = 131502.684>, fillcolor="#f5d1b7"] ;
442 -> 444 ;
445 [label=<queued &le; 0.346<br/>squared_error = 3288096.25<br/>samples = 2<br/>value = 145603.514>, fillcolor="#f2c09b"] ;
441 -> 445 ;
446 [label=<squared_error = 0.0<br/>samples = 1<br/>value = 147416.825>, fillcolor="#f1bd98"] ;
445 -> 446 ;
447 [label=<squared_error = -0.0<br/>samples = 1<br/>value = 143790.203>, fillcolor="#f2c29f"] ;
445 -> 447 ;
448 [label=<CAT 798-AC &le; 0.438<br/>squared_error = 132378043.802<br/>samples = 194<br/>value = 133581.621>, fillcolor="#f5ceb3"] ;
2 -> 448 ;
449 [label=<demora &le; -0.902<br/>squared_error = 124937969.195<br/>samples = 168<br/>value = 135113.918>, fillcolor="#f5ccb0"] ;
448 -> 449 ;
450 [label=<distance_down_level &le; 1.219<br/>squared_error = 94657746.049<br/>samples = 41<br/>value = 128681.939>, fillcolor="#f6d4bc"] ;
449 -> 450 ;
451 [label=<distance_up_level &le; -0.325<br/>squared_error = 79655897.685<br/>samples = 38<br/>value = 127405.804>, fillcolor="#f7d6be"] ;
450 -> 451 ;
452 [label=<day_2 &le; 0.5<br/>squared_error = 68000566.751<br/>samples = 34<br/>value = 128730.322>, fillcolor="#f6d4bc"] ;
451 -> 452 ;
453 [label=<distance_up_level &le; -1.226<br/>squared_error = 55318570.234<br/>samples = 33<br/>value = 129388.81>, fillcolor="#f6d3bb"] ;
452 -> 453 ;
454 [label=<travel_time &le; 0.533<br/>squared_error = 581835.094<br/>samples = 3<br/>value = 118001.722>, fillcolor="#f9e1d1"] ;
453 -> 454 ;
455 [label=<distance_up &le; 1.0<br/>squared_error = 72305.337<br/>samples = 2<br/>value = 117485.18>, fillcolor="#f9e2d2"] ;
454 -> 455 ;
456 [label=<squared_error = 0.0<br/>samples = 1<br/>value = 117216.283>, fillcolor="#f9e2d2"] ;
455 -> 456 ;
457 [label=<squared_error = 0.0<br/>samples = 1<br/>value = 117754.076>, fillcolor="#f9e2d1"] ;
455 -> 457 ;
458 [label=<squared_error = -0.0<br/>samples = 1<br/>value = 119034.806>, fillcolor="#f9e0cf"] ;
454 -> 458 ;
459 [label=<queued &le; -0.538<br/>squared_error = 46529009.17<br/>samples = 30<br/>value = 130527.518>, fillcolor="#f6d2b8"] ;
453 -> 459 ;
460 [label=<lift_down_level &le; -0.213<br/>squared_error = 48936900.087<br/>samples = 8<br/>value = 124075.274>, fillcolor="#f7dac5"] ;
459 -> 460 ;
461 [label=<day_28 &le; 0.5<br/>squared_error = 5125594.06<br/>samples = 2<br/>value = 113593.771>, fillcolor="#fae7d9"] ;
460 -> 461 ;
462 [label=<squared_error = 0.0<br/>samples = 1<br/>value = 111329.793>, fillcolor="#fbeadd"] ;
461 -> 462 ;
463 [label=<squared_error = -0.0<br/>samples = 1<br/>value = 115857.748>, fillcolor="#f9e4d5"] ;
461 -> 463 ;
464 [label=<distance_down_level &le; 0.198<br/>squared_error = 14713151.084<br/>samples = 6<br/>value = 127569.109>, fillcolor="#f6d6be"] ;
460 -> 464 ;
465 [label=<r_prog &le; 1.049<br/>squared_error = 626585.601<br/>samples = 2<br/>value = 122467.4>, fillcolor="#f8dcc8"] ;
464 -> 465 ;
466 [label=<squared_error = 0.0<br/>samples = 1<br/>value = 121675.829>, fillcolor="#f8ddca"] ;
465 -> 466 ;
467 [label=<squared_error = -0.0<br/>samples = 1<br/>value = 123258.972>, fillcolor="#f8dbc6"] ;
465 -> 467 ;
468 [label=<travel_time &le; 0.487<br/>squared_error = 2235864.829<br/>samples = 4<br/>value = 130119.963>, fillcolor="#f6d3b9"] ;
464 -> 468 ;
469 [label=<day_17 &le; 0.5<br/>squared_error = 38670.074<br/>samples = 2<br/>value = 128675.321>, fillcolor="#f6d4bc"] ;
468 -> 469 ;
470 [label=<squared_error = 0.0<br/>samples = 1<br/>value = 128478.674>, fillcolor="#f6d5bc"] ;
469 -> 470 ;
471 [label=<squared_error = 0.0<br/>samples = 1<br/>value = 128871.968>, fillcolor="#f6d4bc"] ;
469 -> 471 ;
472 [label=<lift_down &le; 0.087<br/>squared_error = 259081.029<br/>samples = 2<br/>value = 131564.604>, fillcolor="#f5d1b6"] ;
468 -> 472 ;
473 [label=<squared_error = 0.0<br/>samples = 1<br/>value = 132073.604>, fillcolor="#f5d0b5"] ;
472 -> 473 ;
474 [label=<squared_error = 0.0<br/>samples = 1<br/>value = 131055.604>, fillcolor="#f6d1b7"] ;
472 -> 474 ;
475 [label=<month_6 &le; 0.5<br/>squared_error = 25009715.188<br/>samples = 22<br/>value = 132873.789>, fillcolor="#f5cfb4"] ;
459 -> 475 ;
476 [label=<Kom.930E-4SE &le; 1.106<br/>squared_error = 13495081.257<br/>samples = 17<br/>value = 134859.075>, fillcolor="#f5cdb0"] ;
475 -> 476 ;
477 [label=<mant_excl &le; -1.356<br/>squared_error = 10737567.152<br/>samples = 6<br/>value = 131923.011>, fillcolor="#f5d0b6"] ;
476 -> 477 ;
478 [label=<squared_error = 0.0<br/>samples = 1<br/>value = 127159.668>, fillcolor="#f7d6bf"] ;
477 -> 478 ;
479 [label=<waiting &le; -0.405<br/>squared_error = 7439614.892<br/>samples = 5<br/>value = 132875.68>, fillcolor="#f5cfb4"] ;
477 -> 479 ;
480 [label=<mec_excl &le; 1.028<br/>squared_error = 3161728.085<br/>samples = 3<br/>value = 130991.52>, fillcolor="#f6d2b8"] ;
479 -> 480 ;
481 [label=<r_noprg &le; 0.458<br/>squared_error = 83632.31<br/>samples = 2<br/>value = 132237.709>, fillcolor="#f5d0b5"] ;
480 -> 481 ;
482 [label=<squared_error = 0.0<br/>samples = 1<br/>value = 131948.516>, fillcolor="#f5d0b6"] ;
481 -> 482 ;
483 [label=<squared_error = -0.0<br/>samples = 1<br/>value = 132526.901>, fillcolor="#f5d0b5"] ;
481 -> 483 ;
484 [label=<squared_error = -0.0<br/>samples = 1<br/>value = 128499.142>, fillcolor="#f6d5bc"] ;
480 -> 484 ;
485 [label=<distance_up_level &le; -0.828<br/>squared_error = 543717.278<br/>samples = 2<br/>value = 135701.921>, fillcolor="#f4ccae"] ;
479 -> 485 ;
486 [label=<squared_error = 0.0<br/>samples = 1<br/>value = 134964.549>, fillcolor="#f5cdb0"] ;
485 -> 486 ;
487 [label=<squared_error = 0.0<br/>samples = 1<br/>value = 136439.293>, fillcolor="#f4cbad"] ;
485 -> 487 ;
488 [label=<mecanica &le; -0.952<br/>squared_error = 7732336.707<br/>samples = 11<br/>value = 136460.565>, fillcolor="#f4cbad"] ;
476 -> 488 ;
489 [label=<queued &le; -0.254<br/>squared_error = 2360848.902<br/>samples = 4<br/>value = 133885.028>, fillcolor="#f5ceb2"] ;
488 -> 489 ;
490 [label=<squared_error = 0.0<br/>samples = 1<br/>value = 131428.738>, fillcolor="#f6d1b7"] ;
489 -> 490 ;
491 [label=<distance_up_level &le; -0.66<br/>squared_error = 466304.208<br/>samples = 3<br/>value = 134703.792>, fillcolor="#f5cdb0"] ;
489 -> 491 ;
492 [label=<squared_error = 2106.249<br/>samples = 2<br/>value = 134221.661>, fillcolor="#f5ceb1"] ;
491 -> 492 ;
493 [label=<squared_error = 0.0<br/>samples = 1<br/>value = 135668.053>, fillcolor="#f4ccaf"] ;
491 -> 493 ;
494 [label=<distance_up &le; 0.476<br/>squared_error = 4845246.992<br/>samples = 7<br/>value = 137932.3>, fillcolor="#f4c9aa"] ;
488 -> 494 ;
495 [label=<day_30 &le; 0.5<br/>squared_error = 126036.264<br/>samples = 4<br/>value = 136355.414>, fillcolor="#f4cbad"] ;
494 -> 495 ;
496 [label=<waiting &le; -0.322<br/>squared_error = 47926.752<br/>samples = 3<br/>value = 136182.121>, fillcolor="#f4cbae"] ;
495 -> 496 ;
497 [label=<squared_error = 0.0<br/>samples = 1<br/>value = 135880.024>, fillcolor="#f4ccae"] ;
496 -> 497 ;
498 [label=<squared_error = 3443.347<br/>samples = 2<br/>value = 136333.169>, fillcolor="#f4cbad"] ;
496 -> 498 ;
499 [label=<squared_error = -0.0<br/>samples = 1<br/>value = 136875.292>, fillcolor="#f4caac"] ;
495 -> 499 ;
500 [label=<mantencion &le; -0.373<br/>squared_error = 3401531.803<br/>samples = 3<br/>value = 140034.815>, fillcolor="#f3c6a6"] ;
494 -> 500 ;
501 [label=<squared_error = 0.0<br/>samples = 1<br/>value = 137431.611>, fillcolor="#f4caab"] ;
500 -> 501 ;
502 [label=<squared_error = 19795.788<br/>samples = 2<br/>value = 141336.417>, fillcolor="#f3c5a4"] ;
500 -> 502 ;
503 [label=<distance_down_level &le; -0.172<br/>squared_error = 5196696.361<br/>samples = 5<br/>value = 126123.815>, fillcolor="#f7d8c1"] ;
475 -> 503 ;
504 [label=<distance_down_level &le; -0.498<br/>squared_error = 416882.88<br/>samples = 3<br/>value = 124416.441>, fillcolor="#f7dac4"] ;
503 -> 504 ;
505 [label=<squared_error = 0.0<br/>samples = 1<br/>value = 125316.102>, fillcolor="#f7d8c2"] ;
504 -> 505 ;
506 [label=<squared_error = 18281.906<br/>samples = 2<br/>value = 123966.61>, fillcolor="#f7dac5"] ;
504 -> 506 ;
507 [label=<distance_up &le; 0.869<br/>squared_error = 1434688.931<br/>samples = 2<br/>value = 128684.877>, fillcolor="#f6d4bc"] ;
503 -> 507 ;
508 [label=<squared_error = 0.0<br/>samples = 1<br/>value = 129882.662>, fillcolor="#f6d3ba"] ;
507 -> 508 ;
509 [label=<squared_error = -0.0<br/>samples = 1<br/>value = 127487.092>, fillcolor="#f7d6be"] ;
507 -> 509 ;
510 [label=<squared_error = -0.0<br/>samples = 1<br/>value = 107000.217>, fillcolor="#fcefe6"] ;
452 -> 510 ;
511 [label=<demora &le; -1.001<br/>squared_error = 37062636.736<br/>samples = 4<br/>value = 116147.401>, fillcolor="#f9e4d4"] ;
451 -> 511 ;
512 [label=<distance_up &le; 0.396<br/>squared_error = 3352207.852<br/>samples = 2<br/>value = 110256.775>, fillcolor="#fbebe0"] ;
511 -> 512 ;
513 [label=<squared_error = 0.0<br/>samples = 1<br/>value = 108425.872>, fillcolor="#fbede3"] ;
512 -> 513 ;
514 [label=<squared_error = 0.0<br/>samples = 1<br/>value = 112087.679>, fillcolor="#fae9dc"] ;
512 -> 514 ;
515 [label=<lift_down_level &le; -0.064<br/>squared_error = 1374115.188<br/>samples = 2<br/>value = 122038.028>, fillcolor="#f8ddc9"] ;
511 -> 515 ;
516 [label=<squared_error = 0.0<br/>samples = 1<br/>value = 120865.801>, fillcolor="#f8decb"] ;
515 -> 516 ;
517 [label=<squared_error = 0.0<br/>samples = 1<br/>value = 123210.254>, fillcolor="#f8dbc7"] ;
515 -> 517 ;
518 [label=<month_5 &le; 0.5<br/>squared_error = 2765877.482<br/>samples = 3<br/>value = 144846.324>, fillcolor="#f2c19d"] ;
450 -> 518 ;
519 [label=<mantencion &le; 0.645<br/>squared_error = 232072.022<br/>samples = 2<br/>value = 143703.704>, fillcolor="#f2c29f"] ;
518 -> 519 ;
520 [label=<squared_error = 0.0<br/>samples = 1<br/>value = 143221.965>, fillcolor="#f3c3a0"] ;
519 -> 520 ;
521 [label=<squared_error = -0.0<br/>samples = 1<br/>value = 144185.442>, fillcolor="#f2c19e"] ;
519 -> 521 ;
522 [label=<squared_error = 0.0<br/>samples = 1<br/>value = 147131.565>, fillcolor="#f2be98"] ;
518 -> 522 ;
523 [label=<mec_excl &le; 0.673<br/>squared_error = 117045981.917<br/>samples = 127<br/>value = 137190.384>, fillcolor="#f4caac"] ;
449 -> 523 ;
524 [label=<queued &le; 0.819<br/>squared_error = 87072025.006<br/>samples = 63<br/>value = 133443.955>, fillcolor="#f5cfb3"] ;
523 -> 524 ;
525 [label=<lift_down &le; -0.143<br/>squared_error = 84877923.761<br/>samples = 38<br/>value = 130491.642>, fillcolor="#f6d2b9"] ;
524 -> 525 ;
526 [label=<distance_down_level &le; -0.657<br/>squared_error = 25684903.692<br/>samples = 3<br/>value = 146629.119>, fillcolor="#f2be99"] ;
525 -> 526 ;
527 [label=<squared_error = 0.0<br/>samples = 1<br/>value = 139888.959>, fillcolor="#f3c7a6"] ;
526 -> 527 ;
528 [label=<shift_B &le; 0.5<br/>squared_error = 4455039.952<br/>samples = 2<br/>value = 149999.199>, fillcolor="#f1ba93"] ;
526 -> 528 ;
529 [label=<squared_error = 0.0<br/>samples = 1<br/>value = 147888.502>, fillcolor="#f1bd97"] ;
528 -> 529 ;
530 [label=<squared_error = -0.0<br/>samples = 1<br/>value = 152109.895>, fillcolor="#f0b88f"] ;
528 -> 530 ;
531 [label=<lift_down_level &le; 0.573<br/>squared_error = 65716778.501<br/>samples = 35<br/>value = 129108.43>, fillcolor="#f6d4bb"] ;
525 -> 531 ;
532 [label=<mecanica &le; -0.031<br/>squared_error = 49364039.135<br/>samples = 28<br/>value = 131385.943>, fillcolor="#f6d1b7"] ;
531 -> 532 ;
533 [label=<mant_excl &le; -1.403<br/>squared_error = 17566806.259<br/>samples = 18<br/>value = 128581.096>, fillcolor="#f6d4bc"] ;
532 -> 533 ;
534 [label=<squared_error = 0.0<br/>samples = 1<br/>value = 138866.236>, fillcolor="#f4c8a8"] ;
533 -> 534 ;
535 [label=<lift_down_level &le; -1.224<br/>squared_error = 12011518.637<br/>samples = 17<br/>value = 127976.088>, fillcolor="#f6d5bd"] ;
533 -> 535 ;
536 [label=<squared_error = 0.0<br/>samples = 1<br/>value = 136430.055>, fillcolor="#f4cbad"] ;
535 -> 536 ;
537 [label=<queued &le; -1.039<br/>squared_error = 8016212.915<br/>samples = 16<br/>value = 127447.715>, fillcolor="#f7d6be"] ;
535 -> 537 ;
538 [label=<squared_error = 0.0<br/>samples = 1<br/>value = 119886.494>, fillcolor="#f8dfcd"] ;
537 -> 538 ;
539 [label=<day_3 &le; 0.5<br/>squared_error = 4485058.313<br/>samples = 15<br/>value = 127951.796>, fillcolor="#f6d5bd"] ;
537 -> 539 ;
540 [label=<waiting &le; -1.236<br/>squared_error = 2268105.974<br/>samples = 14<br/>value = 128363.08>, fillcolor="#f6d5bd"] ;
539 -> 540 ;
541 [label=<distance_up_level &le; -0.43<br/>squared_error = 296925.784<br/>samples = 3<br/>value = 130343.309>, fillcolor="#f6d2b9"] ;
540 -> 541 ;
542 [label=<squared_error = 13304.811<br/>samples = 2<br/>value = 130722.819>, fillcolor="#f6d2b8"] ;
541 -> 542 ;
543 [label=<squared_error = 0.0<br/>samples = 1<br/>value = 129584.289>, fillcolor="#f6d3ba"] ;
541 -> 543 ;
544 [label=<mantencion &le; -0.401<br/>squared_error = 1444585.261<br/>samples = 11<br/>value = 127823.017>, fillcolor="#f6d5be"] ;
540 -> 544 ;
545 [label=<squared_error = 838.619<br/>samples = 2<br/>value = 126331.82>, fillcolor="#f7d7c1"] ;
544 -> 545 ;
546 [label=<r_noprg &le; -0.8<br/>squared_error = 1161458.219<br/>samples = 9<br/>value = 128154.395>, fillcolor="#f6d5bd"] ;
544 -> 546 ;
547 [label=<travel_time &le; 0.317<br/>squared_error = 46970.94<br/>samples = 2<br/>value = 126644.318>, fillcolor="#f7d7c0"] ;
546 -> 547 ;
548 [label=<squared_error = 0.0<br/>samples = 1<br/>value = 126427.59>, fillcolor="#f7d7c0"] ;
547 -> 548 ;
549 [label=<squared_error = -0.0<br/>samples = 1<br/>value = 126861.046>, fillcolor="#f7d7c0"] ;
547 -> 549 ;
550 [label=<travel_time &le; 1.036<br/>squared_error = 642210.455<br/>samples = 7<br/>value = 128585.845>, fillcolor="#f6d4bc"] ;
546 -> 550 ;
551 [label=<mant_excl &le; -0.222<br/>squared_error = 219394.297<br/>samples = 4<br/>value = 129128.207>, fillcolor="#f6d4bb"] ;
550 -> 551 ;
552 [label=<mec_excl &le; 0.224<br/>squared_error = 44354.906<br/>samples = 2<br/>value = 128724.959>, fillcolor="#f6d4bc"] ;
551 -> 552 ;
553 [label=<squared_error = 0.0<br/>samples = 1<br/>value = 128514.353>, fillcolor="#f6d5bc"] ;
552 -> 553 ;
554 [label=<squared_error = 0.0<br/>samples = 1<br/>value = 128935.565>, fillcolor="#f6d4bc"] ;
552 -> 554 ;
555 [label=<demora &le; -0.136<br/>squared_error = 69216.112<br/>samples = 2<br/>value = 129531.455>, fillcolor="#f6d3ba"] ;
551 -> 555 ;
556 [label=<squared_error = 0.0<br/>samples = 1<br/>value = 129794.544>, fillcolor="#f6d3ba"] ;
555 -> 556 ;
557 [label=<squared_error = -0.0<br/>samples = 1<br/>value = 129268.365>, fillcolor="#f6d4bb"] ;
555 -> 557 ;
558 [label=<distance_down_level &le; 0.387<br/>squared_error = 290812.572<br/>samples = 3<br/>value = 127862.696>, fillcolor="#f6d5be"] ;
550 -> 558 ;
559 [label=<squared_error = 3318.609<br/>samples = 2<br/>value = 128242.565>, fillcolor="#f6d5bd"] ;
558 -> 559 ;
560 [label=<squared_error = 0.0<br/>samples = 1<br/>value = 127102.959>, fillcolor="#f7d6bf"] ;
558 -> 560 ;
561 [label=<squared_error = -0.0<br/>samples = 1<br/>value = 122193.825>, fillcolor="#f8dcc9"] ;
539 -> 561 ;
562 [label=<mec_excl &le; 0.512<br/>squared_error = 66948533.953<br/>samples = 10<br/>value = 136434.668>, fillcolor="#f4cbad"] ;
532 -> 562 ;
563 [label=<mant_excl &le; -0.889<br/>squared_error = 30268163.534<br/>samples = 6<br/>value = 141950.3>, fillcolor="#f3c4a2"] ;
562 -> 563 ;
564 [label=<crew_E4 &le; 0.5<br/>squared_error = 12577934.756<br/>samples = 2<br/>value = 135807.408>, fillcolor="#f4ccae"] ;
563 -> 564 ;
565 [label=<squared_error = 0.0<br/>samples = 1<br/>value = 132260.869>, fillcolor="#f5d0b5"] ;
564 -> 565 ;
566 [label=<squared_error = 0.0<br/>samples = 1<br/>value = 139353.946>, fillcolor="#f3c7a7"] ;
564 -> 566 ;
567 [label=<mantencion &le; -0.912<br/>squared_error = 10811932.966<br/>samples = 4<br/>value = 145021.746>, fillcolor="#f2c09c"] ;
563 -> 567 ;
568 [label=<squared_error = 0.0<br/>samples = 1<br/>value = 150085.614>, fillcolor="#f1ba93"] ;
567 -> 568 ;
569 [label=<Kom.930E-4SE &le; 1.106<br/>squared_error = 3019129.57<br/>samples = 3<br/>value = 143333.79>, fillcolor="#f2c2a0"] ;
567 -> 569 ;
570 [label=<squared_error = 0.0<br/>samples = 1<br/>value = 145789.106>, fillcolor="#f2bf9b"] ;
569 -> 570 ;
571 [label=<squared_error = 7263.385<br/>samples = 2<br/>value = 142106.133>, fillcolor="#f3c4a2"] ;
569 -> 571 ;
572 [label=<mantencion &le; 0.715<br/>squared_error = 7885851.338<br/>samples = 4<br/>value = 128161.22>, fillcolor="#f6d5bd"] ;
562 -> 572 ;
573 [label=<efectivo &le; 0.858<br/>squared_error = 3277008.725<br/>samples = 3<br/>value = 126816.094>, fillcolor="#f7d7c0"] ;
572 -> 573 ;
574 [label=<squared_error = 0.0<br/>samples = 1<br/>value = 124413.324>, fillcolor="#f7dac4"] ;
573 -> 574 ;
575 [label=<Kom.930E-4SE &le; 1.084<br/>squared_error = 585536.346<br/>samples = 2<br/>value = 128017.478>, fillcolor="#f6d5bd"] ;
573 -> 575 ;
576 [label=<squared_error = 0.0<br/>samples = 1<br/>value = 128782.682>, fillcolor="#f6d4bc"] ;
575 -> 576 ;
577 [label=<squared_error = 0.0<br/>samples = 1<br/>value = 127252.275>, fillcolor="#f7d6bf"] ;
575 -> 577 ;
578 [label=<squared_error = -0.0<br/>samples = 1<br/>value = 132196.599>, fillcolor="#f5d0b5"] ;
572 -> 578 ;
579 [label=<lift_up &le; -0.245<br/>squared_error = 27386373.684<br/>samples = 7<br/>value = 119998.375>, fillcolor="#f8dfcd"] ;
531 -> 579 ;
580 [label=<squared_error = 0.0<br/>samples = 1<br/>value = 107265.705>, fillcolor="#fcefe5"] ;
579 -> 580 ;
581 [label=<mantencion &le; -0.592<br/>squared_error = 427262.321<br/>samples = 6<br/>value = 122120.487>, fillcolor="#f8dcc9"] ;
579 -> 581 ;
582 [label=<efectivo &le; 0.898<br/>squared_error = 70038.565<br/>samples = 2<br/>value = 121277.957>, fillcolor="#f8ddca"] ;
581 -> 582 ;
583 [label=<squared_error = 0.0<br/>samples = 1<br/>value = 121013.309>, fillcolor="#f8decb"] ;
582 -> 583 ;
584 [label=<squared_error = 0.0<br/>samples = 1<br/>value = 121542.605>, fillcolor="#f8ddca"] ;
582 -> 584 ;
585 [label=<distance_up &le; 0.77<br/>squared_error = 73481.581<br/>samples = 4<br/>value = 122541.752>, fillcolor="#f8dcc8"] ;
581 -> 585 ;
586 [label=<squared_error = 1030.668<br/>samples = 2<br/>value = 122808.702>, fillcolor="#f8dcc7"] ;
585 -> 586 ;
587 [label=<squared_error = 3407.991<br/>samples = 2<br/>value = 122274.802>, fillcolor="#f8dcc8"] ;
585 -> 587 ;
588 [label=<day_22 &le; 0.5<br/>squared_error = 57020714.071<br/>samples = 25<br/>value = 137931.47>, fillcolor="#f4c9aa"] ;
524 -> 588 ;
589 [label=<distance_up &le; 0.956<br/>squared_error = 46048387.114<br/>samples = 23<br/>value = 136806.759>, fillcolor="#f4caac"] ;
588 -> 589 ;
590 [label=<efectivo &le; 0.749<br/>squared_error = 46157359.034<br/>samples = 7<br/>value = 131713.147>, fillcolor="#f5d1b6"] ;
589 -> 590 ;
591 [label=<mantencion &le; 0.719<br/>squared_error = 440406.783<br/>samples = 2<br/>value = 121951.204>, fillcolor="#f8ddc9"] ;
590 -> 591 ;
592 [label=<squared_error = 0.0<br/>samples = 1<br/>value = 121287.572>, fillcolor="#f8ddca"] ;
591 -> 592 ;
593 [label=<squared_error = 0.0<br/>samples = 1<br/>value = 122614.835>, fillcolor="#f8dcc8"] ;
591 -> 593 ;
594 [label=<mec_excl &le; 0.178<br/>squared_error = 11078632.356<br/>samples = 5<br/>value = 135617.925>, fillcolor="#f4ccaf"] ;
590 -> 594 ;
595 [label=<efectivo &le; 0.872<br/>squared_error = 1154616.731<br/>samples = 2<br/>value = 131657.904>, fillcolor="#f5d1b6"] ;
594 -> 595 ;
596 [label=<squared_error = 0.0<br/>samples = 1<br/>value = 130583.373>, fillcolor="#f6d2b8"] ;
595 -> 596 ;
597 [label=<squared_error = 0.0<br/>samples = 1<br/>value = 132732.435>, fillcolor="#f5cfb4"] ;
595 -> 597 ;
598 [label=<waiting &le; -1.027<br/>squared_error = 270457.633<br/>samples = 3<br/>value = 138257.939>, fillcolor="#f4c9aa"] ;
594 -> 598 ;
599 [label=<squared_error = 0.0<br/>samples = 1<br/>value = 137607.395>, fillcolor="#f4c9ab"] ;
598 -> 599 ;
600 [label=<crew_E4 &le; 0.5<br/>squared_error = 88280.88<br/>samples = 2<br/>value = 138583.211>, fillcolor="#f4c8a9"] ;
598 -> 600 ;
601 [label=<squared_error = 0.0<br/>samples = 1<br/>value = 138880.332>, fillcolor="#f4c8a8"] ;
600 -> 601 ;
602 [label=<squared_error = 0.0<br/>samples = 1<br/>value = 138286.09>, fillcolor="#f4c9a9"] ;
600 -> 602 ;
603 [label=<r_prog &le; 0.836<br/>squared_error = 29683812.987<br/>samples = 16<br/>value = 139035.215>, fillcolor="#f4c8a8"] ;
589 -> 603 ;
604 [label=<mantencion &le; 0.135<br/>squared_error = 9181531.79<br/>samples = 11<br/>value = 141260.197>, fillcolor="#f3c5a4"] ;
603 -> 604 ;
605 [label=<queued &le; 1.0<br/>squared_error = 5069724.143<br/>samples = 5<br/>value = 143564.897>, fillcolor="#f2c29f"] ;
604 -> 605 ;
606 [label=<distance_down_level &le; 0.241<br/>squared_error = 846199.467<br/>samples = 2<br/>value = 141309.783>, fillcolor="#f3c5a4"] ;
605 -> 606 ;
607 [label=<squared_error = 0.0<br/>samples = 1<br/>value = 140389.892>, fillcolor="#f3c6a5"] ;
606 -> 607 ;
608 [label=<squared_error = 0.0<br/>samples = 1<br/>value = 142229.674>, fillcolor="#f3c4a2"] ;
606 -> 608 ;
609 [label=<mec_excl &le; 0.321<br/>squared_error = 2234809.935<br/>samples = 3<br/>value = 145068.306>, fillcolor="#f2c09c"] ;
605 -> 609 ;
610 [label=<squared_error = 0.0<br/>samples = 1<br/>value = 147157.857>, fillcolor="#f2be98"] ;
609 -> 610 ;
611 [label=<distance_up &le; 1.528<br/>squared_error = 77546.673<br/>samples = 2<br/>value = 144023.53>, fillcolor="#f2c29e"] ;
609 -> 611 ;
612 [label=<squared_error = 0.0<br/>samples = 1<br/>value = 144302.002>, fillcolor="#f2c19e"] ;
611 -> 612 ;
613 [label=<squared_error = 0.0<br/>samples = 1<br/>value = 143745.058>, fillcolor="#f2c29f"] ;
611 -> 613 ;
614 [label=<distance_up_level &le; -0.951<br/>squared_error = 4493031.605<br/>samples = 6<br/>value = 139339.614>, fillcolor="#f4c7a7"] ;
604 -> 614 ;
615 [label=<squared_error = 1140.993<br/>samples = 2<br/>value = 141807.634>, fillcolor="#f3c4a3"] ;
614 -> 615 ;
616 [label=<demora &le; -0.838<br/>squared_error = 2170636.129<br/>samples = 4<br/>value = 138105.604>, fillcolor="#f4c9aa"] ;
614 -> 616 ;
617 [label=<squared_error = 0.0<br/>samples = 1<br/>value = 135618.764>, fillcolor="#f4ccaf"] ;
616 -> 617 ;
618 [label=<mec_excl &le; 0.317<br/>squared_error = 145571.122<br/>samples = 3<br/>value = 138934.551>, fillcolor="#f4c8a8"] ;
616 -> 618 ;
619 [label=<squared_error = 15498.025<br/>samples = 2<br/>value = 138674.513>, fillcolor="#f4c8a9"] ;
618 -> 619 ;
620 [label=<squared_error = 0.0<br/>samples = 1<br/>value = 139454.626>, fillcolor="#f3c7a7"] ;
618 -> 620 ;
621 [label=<year_2024 &le; 0.5<br/>squared_error = 39936986.538<br/>samples = 5<br/>value = 134140.254>, fillcolor="#f5ceb1"] ;
603 -> 621 ;
622 [label=<distance_down_level &le; 0.288<br/>squared_error = 10856136.802<br/>samples = 4<br/>value = 136935.431>, fillcolor="#f4caac"] ;
621 -> 622 ;
623 [label=<efectivo &le; 0.757<br/>squared_error = 3518201.648<br/>samples = 2<br/>value = 134110.757>, fillcolor="#f5ceb2"] ;
622 -> 623 ;
624 [label=<squared_error = 0.0<br/>samples = 1<br/>value = 132235.07>, fillcolor="#f5d0b5"] ;
623 -> 624 ;
625 [label=<squared_error = 0.0<br/>samples = 1<br/>value = 135986.444>, fillcolor="#f4cbae"] ;
623 -> 625 ;
626 [label=<distance_down_level &le; 0.388<br/>squared_error = 2236499.581<br/>samples = 2<br/>value = 139760.106>, fillcolor="#f3c7a7"] ;
622 -> 626 ;
627 [label=<squared_error = 0.0<br/>samples = 1<br/>value = 138264.613>, fillcolor="#f4c9aa"] ;
626 -> 627 ;
628 [label=<squared_error = 0.0<br/>samples = 1<br/>value = 141255.599>, fillcolor="#f3c5a4"] ;
626 -> 628 ;
629 [label=<squared_error = -0.0<br/>samples = 1<br/>value = 122959.542>, fillcolor="#f8dbc7"] ;
621 -> 629 ;
630 [label=<waiting &le; 0.011<br/>squared_error = 1362401.473<br/>samples = 2<br/>value = 150865.645>, fillcolor="#f1b991"] ;
588 -> 630 ;
631 [label=<squared_error = 0.0<br/>samples = 1<br/>value = 152032.864>, fillcolor="#f0b88f"] ;
630 -> 631 ;
632 [label=<squared_error = -0.0<br/>samples = 1<br/>value = 149698.425>, fillcolor="#f1bb93"] ;
630 -> 632 ;
633 [label=<month_6 &le; 0.5<br/>squared_error = 119134633.377<br/>samples = 64<br/>value = 140878.275>, fillcolor="#f3c5a4"] ;
523 -> 633 ;
634 [label=<mant_excl &le; 1.708<br/>squared_error = 75490368.695<br/>samples = 49<br/>value = 143686.673>, fillcolor="#f2c29f"] ;
633 -> 634 ;
635 [label=<lift_down &le; 0.302<br/>squared_error = 57069760.094<br/>samples = 46<br/>value = 142493.414>, fillcolor="#f3c3a1"] ;
634 -> 635 ;
636 [label=<day_5 &le; 0.5<br/>squared_error = 49705923.142<br/>samples = 42<br/>value = 143474.427>, fillcolor="#f2c29f"] ;
635 -> 636 ;
637 [label=<r_noprg &le; -0.863<br/>squared_error = 39868299.42<br/>samples = 39<br/>value = 144397.164>, fillcolor="#f2c19e"] ;
636 -> 637 ;
638 [label=<squared_error = 0.0<br/>samples = 1<br/>value = 129136.626>, fillcolor="#f6d4bb"] ;
637 -> 638 ;
639 [label=<demora &le; -0.508<br/>squared_error = 34627660.792<br/>samples = 38<br/>value = 144798.758>, fillcolor="#f2c19d"] ;
637 -> 639 ;
640 [label=<demora &le; -0.687<br/>squared_error = 35026790.147<br/>samples = 27<br/>value = 146443.861>, fillcolor="#f2bf9a"] ;
639 -> 640 ;
641 [label=<lift_down_level &le; 0.091<br/>squared_error = 36723760.247<br/>samples = 14<br/>value = 143551.679>, fillcolor="#f2c29f"] ;
640 -> 641 ;
642 [label=<demora &le; -0.827<br/>squared_error = 16223231.99<br/>samples = 5<br/>value = 149333.997>, fillcolor="#f1bb94"] ;
641 -> 642 ;
643 [label=<squared_error = 0.0<br/>samples = 1<br/>value = 157377.69>, fillcolor="#efb185"] ;
642 -> 643 ;
644 [label=<travel_time &le; 0.677<br/>squared_error = 59976.417<br/>samples = 4<br/>value = 147323.073>, fillcolor="#f1bd98"] ;
642 -> 644 ;
645 [label=<squared_error = 18915.461<br/>samples = 2<br/>value = 147541.392>, fillcolor="#f1bd98"] ;
644 -> 645 ;
646 [label=<squared_error = 5710.823<br/>samples = 2<br/>value = 147104.754>, fillcolor="#f2be98"] ;
644 -> 646 ;
647 [label=<lift_down_level &le; 0.196<br/>squared_error = 19218326.019<br/>samples = 9<br/>value = 140339.28>, fillcolor="#f3c6a6"] ;
641 -> 647 ;
648 [label=<squared_error = 16653.236<br/>samples = 2<br/>value = 133587.73>, fillcolor="#f5ceb3"] ;
647 -> 648 ;
649 [label=<r_prog &le; -1.202<br/>squared_error = 7959583.761<br/>samples = 7<br/>value = 142268.294>, fillcolor="#f3c4a2"] ;
647 -> 649 ;
650 [label=<travel_time &le; -0.281<br/>squared_error = 44818.2<br/>samples = 2<br/>value = 145758.807>, fillcolor="#f2bf9b"] ;
649 -> 650 ;
651 [label=<squared_error = 0.0<br/>samples = 1<br/>value = 145970.51>, fillcolor="#f2bf9b"] ;
650 -> 651 ;
652 [label=<squared_error = 0.0<br/>samples = 1<br/>value = 145547.104>, fillcolor="#f2c09b"] ;
650 -> 652 ;
653 [label=<day_3 &le; 0.5<br/>squared_error = 4302630.397<br/>samples = 5<br/>value = 140872.089>, fillcolor="#f3c5a4"] ;
649 -> 653 ;
654 [label=<queued &le; 1.521<br/>squared_error = 1777393.072<br/>samples = 4<br/>value = 141720.723>, fillcolor="#f3c4a3"] ;
653 -> 654 ;
655 [label=<mec_excl &le; 1.149<br/>squared_error = 39264.176<br/>samples = 3<br/>value = 140957.409>, fillcolor="#f3c5a4"] ;
654 -> 655 ;
656 [label=<squared_error = 0.0<br/>samples = 1<br/>value = 140683.766>, fillcolor="#f3c6a5"] ;
655 -> 656 ;
657 [label=<squared_error = 2735.973<br/>samples = 2<br/>value = 141094.23>, fillcolor="#f3c5a4"] ;
655 -> 657 ;
658 [label=<squared_error = 0.0<br/>samples = 1<br/>value = 144010.665>, fillcolor="#f2c29e"] ;
654 -> 658 ;
659 [label=<squared_error = -0.0<br/>samples = 1<br/>value = 137477.555>, fillcolor="#f4caab"] ;
653 -> 659 ;
660 [label=<distance_up &le; 1.396<br/>squared_error = 14490037.787<br/>samples = 13<br/>value = 149558.518>, fillcolor="#f1bb94"] ;
640 -> 660 ;
661 [label=<queued &le; 0.585<br/>squared_error = 7197733.375<br/>samples = 9<br/>value = 147605.393>, fillcolor="#f1bd98"] ;
660 -> 661 ;
662 [label=<day_26 &le; 0.5<br/>squared_error = 1107833.105<br/>samples = 3<br/>value = 144421.142>, fillcolor="#f2c19e"] ;
661 -> 662 ;
663 [label=<r_noprg &le; 0.087<br/>squared_error = 193029.268<br/>samples = 2<br/>value = 143721.446>, fillcolor="#f2c29f"] ;
662 -> 663 ;
664 [label=<squared_error = 0.0<br/>samples = 1<br/>value = 144160.797>, fillcolor="#f2c19e"] ;
663 -> 664 ;
665 [label=<squared_error = 0.0<br/>samples = 1<br/>value = 143282.095>, fillcolor="#f3c2a0"] ;
663 -> 665 ;
666 [label=<squared_error = 0.0<br/>samples = 1<br/>value = 145820.532>, fillcolor="#f2bf9b"] ;
662 -> 666 ;
667 [label=<day_3 &le; 0.5<br/>squared_error = 2638088.681<br/>samples = 6<br/>value = 149197.519>, fillcolor="#f1bb94"] ;
661 -> 667 ;
668 [label=<lift_down_level &le; -0.001<br/>squared_error = 618531.124<br/>samples = 5<br/>value = 149849.078>, fillcolor="#f1ba93"] ;
667 -> 668 ;
669 [label=<squared_error = 18737.781<br/>samples = 3<br/>value = 150422.112>, fillcolor="#f1ba92"] ;
668 -> 669 ;
670 [label=<distance_up_level &le; -0.158<br/>squared_error = 286842.085<br/>samples = 2<br/>value = 148989.528>, fillcolor="#f1bb95"] ;
668 -> 670 ;
671 [label=<squared_error = 0.0<br/>samples = 1<br/>value = 148453.951>, fillcolor="#f1bc96"] ;
670 -> 671 ;
672 [label=<squared_error = 0.0<br/>samples = 1<br/>value = 149525.104>, fillcolor="#f1bb94"] ;
670 -> 672 ;
673 [label=<squared_error = 0.0<br/>samples = 1<br/>value = 145939.724>, fillcolor="#f2bf9b"] ;
667 -> 673 ;
674 [label=<Kom.930E-4SE &le; 1.106<br/>squared_error = 3002758.183<br/>samples = 4<br/>value = 153953.049>, fillcolor="#f0b58b"] ;
660 -> 674 ;
675 [label=<crew_E4 &le; 0.5<br/>squared_error = 212151.818<br/>samples = 2<br/>value = 152295.851>, fillcolor="#f0b78e"] ;
674 -> 675 ;
676 [label=<squared_error = 0.0<br/>samples = 1<br/>value = 152756.45>, fillcolor="#f0b78e"] ;
675 -> 676 ;
677 [label=<squared_error = 0.0<br/>samples = 1<br/>value = 151835.251>, fillcolor="#f0b88f"] ;
675 -> 677 ;
678 [label=<r_prog &le; -0.374<br/>squared_error = 300754.069<br/>samples = 2<br/>value = 155610.247>, fillcolor="#efb388"] ;
674 -> 678 ;
679 [label=<squared_error = 0.0<br/>samples = 1<br/>value = 156158.657>, fillcolor="#efb387"] ;
678 -> 679 ;
680 [label=<squared_error = 0.0<br/>samples = 1<br/>value = 155061.836>, fillcolor="#f0b489"] ;
678 -> 680 ;
681 [label=<efectivo &le; 0.681<br/>squared_error = 10699802.682<br/>samples = 11<br/>value = 140760.777>, fillcolor="#f3c6a5"] ;
639 -> 681 ;
682 [label=<mec_excl &le; 1.171<br/>squared_error = 4141769.99<br/>samples = 2<br/>value = 134944.907>, fillcolor="#f5cdb0"] ;
681 -> 682 ;
683 [label=<squared_error = 0.0<br/>samples = 1<br/>value = 132909.773>, fillcolor="#f5cfb4"] ;
682 -> 683 ;
684 [label=<squared_error = -0.0<br/>samples = 1<br/>value = 136980.041>, fillcolor="#f4caac"] ;
682 -> 684 ;
685 [label=<mantencion &le; 0.65<br/>squared_error = 2970283.008<br/>samples = 9<br/>value = 142053.193>, fillcolor="#f3c4a2"] ;
681 -> 685 ;
686 [label=<mec_excl &le; 0.942<br/>squared_error = 1715289.863<br/>samples = 7<br/>value = 141405.076>, fillcolor="#f3c5a3"] ;
685 -> 686 ;
687 [label=<Kom.930E-4SE &le; 1.106<br/>squared_error = 240978.61<br/>samples = 4<br/>value = 142439.333>, fillcolor="#f3c3a1"] ;
686 -> 687 ;
688 [label=<squared_error = 0.0<br/>samples = 1<br/>value = 141592.96>, fillcolor="#f3c5a3"] ;
687 -> 688 ;
689 [label=<squared_error = 2928.32<br/>samples = 3<br/>value = 142721.457>, fillcolor="#f3c3a1"] ;
687 -> 689 ;
690 [label=<queued &le; 0.189<br/>squared_error = 353123.316<br/>samples = 3<br/>value = 140026.067>, fillcolor="#f3c6a6"] ;
686 -> 690 ;
691 [label=<squared_error = 0.0<br/>samples = 1<br/>value = 139295.724>, fillcolor="#f4c7a8"] ;
690 -> 691 ;
692 [label=<mecanica &le; 0.487<br/>squared_error = 129633.901<br/>samples = 2<br/>value = 140391.239>, fillcolor="#f3c6a5"] ;
690 -> 692 ;
693 [label=<squared_error = 0.0<br/>samples = 1<br/>value = 140031.192>, fillcolor="#f3c6a6"] ;
692 -> 693 ;
694 [label=<squared_error = 0.0<br/>samples = 1<br/>value = 140751.286>, fillcolor="#f3c6a5"] ;
692 -> 694 ;
695 [label=<demora &le; -0.279<br/>squared_error = 746886.445<br/>samples = 2<br/>value = 144321.602>, fillcolor="#f2c19e"] ;
685 -> 695 ;
696 [label=<squared_error = 0.0<br/>samples = 1<br/>value = 143457.376>, fillcolor="#f2c2a0"] ;
695 -> 696 ;
697 [label=<squared_error = 0.0<br/>samples = 1<br/>value = 145185.828>, fillcolor="#f2c09c"] ;
695 -> 697 ;
698 [label=<mant_excl &le; 0.188<br/>squared_error = 22632057.853<br/>samples = 3<br/>value = 131478.836>, fillcolor="#f5d1b7"] ;
636 -> 698 ;
699 [label=<mecanica &le; 0.169<br/>squared_error = 7172291.743<br/>samples = 2<br/>value = 134466.355>, fillcolor="#f5cdb1"] ;
698 -> 699 ;
700 [label=<squared_error = 0.0<br/>samples = 1<br/>value = 131788.241>, fillcolor="#f5d1b6"] ;
699 -> 700 ;
701 [label=<squared_error = 0.0<br/>samples = 1<br/>value = 137144.468>, fillcolor="#f4caac"] ;
699 -> 701 ;
702 [label=<squared_error = -0.0<br/>samples = 1<br/>value = 125503.8>, fillcolor="#f7d8c2"] ;
698 -> 702 ;
703 [label=<mantencion &le; -0.922<br/>squared_error = 18181887.438<br/>samples = 4<br/>value = 132192.778>, fillcolor="#f5d0b5"] ;
635 -> 703 ;
704 [label=<squared_error = 0.0<br/>samples = 1<br/>value = 139556.421>, fillcolor="#f3c7a7"] ;
703 -> 704 ;
705 [label=<mant_excl &le; -0.451<br/>squared_error = 143296.533<br/>samples = 3<br/>value = 129738.23>, fillcolor="#f6d3ba"] ;
703 -> 705 ;
706 [label=<squared_error = 0.0<br/>samples = 1<br/>value = 129212.426>, fillcolor="#f6d4bb"] ;
705 -> 706 ;
707 [label=<squared_error = 7592.491<br/>samples = 2<br/>value = 130001.132>, fillcolor="#f6d3b9"] ;
705 -> 707 ;
708 [label=<waiting &le; -0.065<br/>squared_error = 1339942.751<br/>samples = 3<br/>value = 161983.315>, fillcolor="#eeac7c"] ;
634 -> 708 ;
709 [label=<lift_down_level &le; -0.644<br/>squared_error = 461546.332<br/>samples = 2<br/>value = 162701.732>, fillcolor="#eeab7a"] ;
708 -> 709 ;
710 [label=<squared_error = 0.0<br/>samples = 1<br/>value = 163381.104>, fillcolor="#edaa79"] ;
709 -> 710 ;
711 [label=<squared_error = 0.0<br/>samples = 1<br/>value = 162022.36>, fillcolor="#eeab7c"] ;
709 -> 711 ;
712 [label=<squared_error = 0.0<br/>samples = 1<br/>value = 160546.482>, fillcolor="#eead7f"] ;
708 -> 712 ;
713 [label=<mec_excl &le; 1.77<br/>squared_error = 151777236.011<br/>samples = 15<br/>value = 131704.174>, fillcolor="#f5d1b6"] ;
633 -> 713 ;
714 [label=<waiting &le; 0.087<br/>squared_error = 109010065.657<br/>samples = 13<br/>value = 134666.205>, fillcolor="#f5cdb0"] ;
713 -> 714 ;
715 [label=<r_noprg &le; 0.949<br/>squared_error = 55880895.236<br/>samples = 10<br/>value = 138611.837>, fillcolor="#f4c8a9"] ;
714 -> 715 ;
716 [label=<waiting &le; -0.052<br/>squared_error = 13646094.837<br/>samples = 9<br/>value = 140812.832>, fillcolor="#f3c5a5"] ;
715 -> 716 ;
717 [label=<r_prog &le; 0.147<br/>squared_error = 8401017.727<br/>samples = 6<br/>value = 142659.805>, fillcolor="#f3c3a1"] ;
716 -> 717 ;
718 [label=<distance_down_level &le; -0.606<br/>squared_error = 2447748.896<br/>samples = 4<br/>value = 144439.596>, fillcolor="#f2c19e"] ;
717 -> 718 ;
719 [label=<squared_error = 0.0<br/>samples = 1<br/>value = 146990.277>, fillcolor="#f2be99"] ;
718 -> 719 ;
720 [label=<distance_up &le; 1.334<br/>squared_error = 372121.403<br/>samples = 3<br/>value = 143589.369>, fillcolor="#f2c29f"] ;
718 -> 720 ;
721 [label=<squared_error = 0.0<br/>samples = 1<br/>value = 144384.311>, fillcolor="#f2c19e"] ;
720 -> 721 ;
722 [label=<day_3 &le; 0.5<br/>squared_error = 84232.383<br/>samples = 2<br/>value = 143191.898>, fillcolor="#f3c3a0"] ;
720 -> 722 ;
723 [label=<squared_error = 0.0<br/>samples = 1<br/>value = 142901.67>, fillcolor="#f3c3a1"] ;
722 -> 723 ;
724 [label=<squared_error = -0.0<br/>samples = 1<br/>value = 143482.126>, fillcolor="#f2c29f"] ;
722 -> 724 ;
725 [label=<lift_up &le; -0.071<br/>squared_error = 1301615.42<br/>samples = 2<br/>value = 139100.222>, fillcolor="#f4c8a8"] ;
717 -> 725 ;
726 [label=<squared_error = 0.0<br/>samples = 1<br/>value = 137959.339>, fillcolor="#f4c9aa"] ;
725 -> 726 ;
727 [label=<squared_error = 0.0<br/>samples = 1<br/>value = 140241.106>, fillcolor="#f3c6a6"] ;
725 -> 727 ;
728 [label=<expected_time &le; 1.227<br/>squared_error = 3668392.994<br/>samples = 3<br/>value = 137118.886>, fillcolor="#f4caac"] ;
716 -> 728 ;
729 [label=<squared_error = 0.0<br/>samples = 1<br/>value = 134640.818>, fillcolor="#f5cdb1"] ;
728 -> 729 ;
730 [label=<mecanica &le; -0.85<br/>squared_error = 896974.629<br/>samples = 2<br/>value = 138357.92>, fillcolor="#f4c8a9"] ;
728 -> 730 ;
731 [label=<squared_error = 0.0<br/>samples = 1<br/>value = 137410.832>, fillcolor="#f4caab"] ;
730 -> 731 ;
732 [label=<squared_error = 0.0<br/>samples = 1<br/>value = 139305.007>, fillcolor="#f4c7a8"] ;
730 -> 732 ;
733 [label=<squared_error = 0.0<br/>samples = 1<br/>value = 118802.882>, fillcolor="#f9e0cf"] ;
715 -> 733 ;
734 [label=<distance_up &le; 0.675<br/>squared_error = 61235999.637<br/>samples = 3<br/>value = 121514.097>, fillcolor="#f8ddca"] ;
714 -> 734 ;
735 [label=<efectivo &le; 1.407<br/>squared_error = 10900760.469<br/>samples = 2<br/>value = 116319.445>, fillcolor="#f9e4d4"] ;
734 -> 735 ;
736 [label=<squared_error = 0.0<br/>samples = 1<br/>value = 119621.075>, fillcolor="#f8dfcd"] ;
735 -> 736 ;
737 [label=<squared_error = -0.0<br/>samples = 1<br/>value = 113017.815>, fillcolor="#fae8da"] ;
735 -> 737 ;
738 [label=<squared_error = 0.0<br/>samples = 1<br/>value = 131903.402>, fillcolor="#f5d0b6"] ;
734 -> 738 ;
739 [label=<r_prog &le; -0.841<br/>squared_error = 2049508.723<br/>samples = 2<br/>value = 112450.972>, fillcolor="#fae8db"] ;
713 -> 739 ;
740 [label=<squared_error = 0.0<br/>samples = 1<br/>value = 111019.362>, fillcolor="#fbeade"] ;
739 -> 740 ;
741 [label=<squared_error = 0.0<br/>samples = 1<br/>value = 113882.583>, fillcolor="#fae7d9"] ;
739 -> 741 ;
742 [label=<mecanica &le; -0.289<br/>squared_error = 67251420.034<br/>samples = 26<br/>value = 123680.627>, fillcolor="#f7dbc6"] ;
448 -> 742 ;
743 [label=<lift_down &le; -0.047<br/>squared_error = 20059323.309<br/>samples = 5<br/>value = 133294.984>, fillcolor="#f5cfb3"] ;
742 -> 743 ;
744 [label=<squared_error = 0.0<br/>samples = 1<br/>value = 140985.721>, fillcolor="#f3c5a4"] ;
743 -> 744 ;
745 [label=<lift_down_level &le; 0.031<br/>squared_error = 6590579.142<br/>samples = 4<br/>value = 131372.299>, fillcolor="#f6d1b7"] ;
743 -> 745 ;
746 [label=<CAT 797-F &le; 0.356<br/>squared_error = 1003087.17<br/>samples = 2<br/>value = 133830.481>, fillcolor="#f5ceb2"] ;
745 -> 746 ;
747 [label=<squared_error = 0.0<br/>samples = 1<br/>value = 132828.939>, fillcolor="#f5cfb4"] ;
746 -> 747 ;
748 [label=<squared_error = 0.0<br/>samples = 1<br/>value = 134832.024>, fillcolor="#f5cdb0"] ;
746 -> 748 ;
749 [label=<queued &le; 0.148<br/>squared_error = 92753.425<br/>samples = 2<br/>value = 128914.117>, fillcolor="#f6d4bc"] ;
745 -> 749 ;
750 [label=<squared_error = 0.0<br/>samples = 1<br/>value = 129218.672>, fillcolor="#f6d4bb"] ;
749 -> 750 ;
751 [label=<squared_error = 0.0<br/>samples = 1<br/>value = 128609.563>, fillcolor="#f6d4bc"] ;
749 -> 751 ;
752 [label=<r_noprg &le; -0.619<br/>squared_error = 51238968.262<br/>samples = 21<br/>value = 121391.494>, fillcolor="#f8ddca"] ;
742 -> 752 ;
753 [label=<demora &le; 0.414<br/>squared_error = 25330488.918<br/>samples = 7<br/>value = 127200.915>, fillcolor="#f7d6bf"] ;
752 -> 753 ;
754 [label=<demora &le; -0.631<br/>squared_error = 3630522.1<br/>samples = 6<br/>value = 129125.259>, fillcolor="#f6d4bb"] ;
753 -> 754 ;
755 [label=<expected_time &le; 0.977<br/>squared_error = 326543.608<br/>samples = 2<br/>value = 126976.33>, fillcolor="#f7d6bf"] ;
754 -> 755 ;
756 [label=<squared_error = 0.0<br/>samples = 1<br/>value = 126404.89>, fillcolor="#f7d7c0"] ;
755 -> 756 ;
757 [label=<squared_error = 0.0<br/>samples = 1<br/>value = 127547.77>, fillcolor="#f6d6be"] ;
755 -> 757 ;
758 [label=<mec_excl &le; -0.735<br/>squared_error = 1819089.284<br/>samples = 4<br/>value = 130199.724>, fillcolor="#f6d3b9"] ;
754 -> 758 ;
759 [label=<squared_error = 0.0<br/>samples = 1<br/>value = 132499.915>, fillcolor="#f5d0b5"] ;
758 -> 759 ;
760 [label=<waiting &le; -0.597<br/>squared_error = 73950.33<br/>samples = 3<br/>value = 129432.993>, fillcolor="#f6d3bb"] ;
758 -> 760 ;
761 [label=<squared_error = 85.285<br/>samples = 2<br/>value = 129240.778>, fillcolor="#f6d4bb"] ;
760 -> 761 ;
762 [label=<squared_error = 0.0<br/>samples = 1<br/>value = 129817.424>, fillcolor="#f6d3ba"] ;
760 -> 762 ;
763 [label=<squared_error = 0.0<br/>samples = 1<br/>value = 115654.847>, fillcolor="#fae4d5"] ;
753 -> 763 ;
764 [label=<mantencion &le; 0.282<br/>squared_error = 38881185.67<br/>samples = 14<br/>value = 118486.784>, fillcolor="#f9e1d0"] ;
752 -> 764 ;
765 [label=<expected_time &le; 0.914<br/>squared_error = 10820176.106<br/>samples = 8<br/>value = 123194.02>, fillcolor="#f8dbc7"] ;
764 -> 765 ;
766 [label=<lift_down_level &le; 0.785<br/>squared_error = 246712.329<br/>samples = 2<br/>value = 128325.228>, fillcolor="#f6d5bd"] ;
765 -> 766 ;
767 [label=<squared_error = 0.0<br/>samples = 1<br/>value = 128821.93>, fillcolor="#f6d4bc"] ;
766 -> 767 ;
768 [label=<squared_error = 0.0<br/>samples = 1<br/>value = 127828.527>, fillcolor="#f6d5be"] ;
766 -> 768 ;
769 [label=<lift_up &le; -0.09<br/>squared_error = 2642750.894<br/>samples = 6<br/>value = 121483.617>, fillcolor="#f8ddca"] ;
765 -> 769 ;
770 [label=<mecanica &le; 0.184<br/>squared_error = 610916.34<br/>samples = 3<br/>value = 120034.122>, fillcolor="#f8dfcd"] ;
769 -> 770 ;
771 [label=<shift_B &le; 0.5<br/>squared_error = 212754.791<br/>samples = 2<br/>value = 119549.828>, fillcolor="#f9e0ce"] ;
770 -> 771 ;
772 [label=<squared_error = 0.0<br/>samples = 1<br/>value = 120011.082>, fillcolor="#f8dfcd"] ;
771 -> 772 ;
773 [label=<squared_error = -0.0<br/>samples = 1<br/>value = 119088.575>, fillcolor="#f9e0ce"] ;
771 -> 773 ;
774 [label=<squared_error = -0.0<br/>samples = 1<br/>value = 121002.708>, fillcolor="#f8decb"] ;
770 -> 774 ;
775 [label=<lift_down_level &le; 0.594<br/>squared_error = 472513.83<br/>samples = 3<br/>value = 122933.112>, fillcolor="#f8dbc7"] ;
769 -> 775 ;
776 [label=<waiting &le; -0.914<br/>squared_error = 154958.294<br/>samples = 2<br/>value = 123362.767>, fillcolor="#f8dbc6"] ;
775 -> 776 ;
777 [label=<squared_error = 0.0<br/>samples = 1<br/>value = 122969.12>, fillcolor="#f8dbc7"] ;
776 -> 777 ;
778 [label=<squared_error = 0.0<br/>samples = 1<br/>value = 123756.415>, fillcolor="#f7dac5"] ;
776 -> 778 ;
779 [label=<squared_error = 0.0<br/>samples = 1<br/>value = 122073.8>, fillcolor="#f8dcc9"] ;
775 -> 779 ;
780 [label=<distance_up_level &le; -0.707<br/>squared_error = 7359666.591<br/>samples = 6<br/>value = 112210.471>, fillcolor="#fae9dc"] ;
764 -> 780 ;
781 [label=<lift_down_level &le; 0.996<br/>squared_error = 2711204.297<br/>samples = 3<br/>value = 114557.506>, fillcolor="#fae6d7"] ;
780 -> 781 ;
782 [label=<travel_time &le; 1.01<br/>squared_error = 161795.357<br/>samples = 2<br/>value = 113416.598>, fillcolor="#fae7d9"] ;
781 -> 782 ;
783 [label=<squared_error = 0.0<br/>samples = 1<br/>value = 113014.36>, fillcolor="#fae8da"] ;
782 -> 783 ;
784 [label=<squared_error = 0.0<br/>samples = 1<br/>value = 113818.836>, fillcolor="#fae7d9"] ;
782 -> 784 ;
785 [label=<squared_error = -0.0<br/>samples = 1<br/>value = 116839.321>, fillcolor="#f9e3d3"] ;
781 -> 785 ;
786 [label=<CAT 797-F &le; 0.341<br/>squared_error = 990982.602<br/>samples = 3<br/>value = 109863.436>, fillcolor="#fbebe0"] ;
780 -> 786 ;
787 [label=<squared_error = 0.0<br/>samples = 1<br/>value = 108542.62>, fillcolor="#fbede3"] ;
786 -> 787 ;
788 [label=<day_28 &le; 0.5<br/>squared_error = 178058.243<br/>samples = 2<br/>value = 110523.844>, fillcolor="#fbebdf"] ;
786 -> 788 ;
789 [label=<squared_error = 0.0<br/>samples = 1<br/>value = 110945.813>, fillcolor="#fbeade"] ;
788 -> 789 ;
790 [label=<squared_error = 0.0<br/>samples = 1<br/>value = 110101.874>, fillcolor="#fbebe0"] ;
788 -> 790 ;
791 [label=<waiting &le; -0.953<br/>squared_error = 241180554.267<br/>samples = 224<br/>value = 139270.003>, fillcolor="#f4c7a8"] ;
1 -> 791 ;
792 [label=<efectivo &le; -0.541<br/>squared_error = 158864999.773<br/>samples = 53<br/>value = 124849.168>, fillcolor="#f7d9c3"] ;
791 -> 792 ;
793 [label=<mec_excl &le; -1.324<br/>squared_error = 74160178.114<br/>samples = 37<br/>value = 120350.561>, fillcolor="#f8dfcc"] ;
792 -> 793 ;
